<?xml version="1.0"?>
<opencv_storage>
<stage6>
  <maxWeakCount>33</maxWeakCount>
  <stageThreshold>-8.6580443382263184e-01</stageThreshold>
  <weakClassifiers>
    <_>
      <internalNodes>
        0 -1 2422 6.6958069801330566e-02</internalNodes>
      <leafValues>
        6.7232839763164520e-02 6.2548559904098511e-01</leafValues></_>
    <_>
      <internalNodes>
        0 -1 5173868 -2.4277383461594582e-02</internalNodes>
      <leafValues>
        4.7378540039062500e-01 -8.6877532303333282e-02</leafValues></_>
    <_>
      <internalNodes>
        0 -1 5502553 -6.5290033817291260e-02</internalNodes>
      <leafValues>
        5.6057929992675781e-01 -1.1981067806482315e-01</leafValues></_>
    <_>
      <internalNodes>
        0 -1 3077954 4.1511774063110352e-02</internalNodes>
      <leafValues>
        -1.5808875858783722e-01 4.7733846306800842e-01</leafValues></_>
    <_>
      <internalNodes>
        0 -1 5988117 -1.5893210656940937e-03</internalNodes>
      <leafValues>
        4.2493736743927002e-01 -1.1159498244524002e-01</leafValues></_>
    <_>
      <internalNodes>
        0 -1 1047571 -1.3610383030027151e-04</internalNodes>
      <leafValues>
        -5.2401888370513916e-01 9.8169714212417603e-02</leafValues></_>
    <_>
      <internalNodes>
        0 -1 2537494 -4.0293074562214315e-04</internalNodes>
      <leafValues>
        -7.2831749916076660e-01 4.6641029417514801e-02</leafValues></_>
    <_>
      <internalNodes>
        0 -1 5063941 5.2377721294760704e-04</internalNodes>
      <leafValues>
        -1.2939843535423279e-01 3.5442602634429932e-01</leafValues></_>
    <_>
      <internalNodes>
        0 -1 5271821 -7.1223964914679527e-04</internalNodes>
      <leafValues>
        2.9556974768638611e-01 -1.7752280831336975e-01</leafValues></_>
    <_>
      <internalNodes>
        0 -1 5625726 -1.9693721085786819e-02</internalNodes>
      <leafValues>
        3.2116714119911194e-01 -1.3279791176319122e-01</leafValues></_>
    <_>
      <internalNodes>
        0 -1 2299613 1.2219907343387604e-01</internalNodes>
      <leafValues>
        -1.2078621238470078e-01 4.8566702008247375e-01</leafValues></_>
    <_>
      <internalNodes>
        0 -1 110458 -1.0579371824860573e-02</internalNodes>
      <leafValues>
        2.8849974274635315e-01 -1.4838422834873199e-01</leafValues></_>
    <_>
      <internalNodes>
        0 -1 2220660 -2.3204134777188301e-02</internalNodes>
      <leafValues>
        5.7292890548706055e-01 -9.2558704316616058e-02</leafValues></_>
    <_>
      <internalNodes>
        0 -1 1410859 -1.7521149129606783e-04</internalNodes>
      <leafValues>
        -6.4463692903518677e-01 7.7536702156066895e-02</leafValues></_>
    <_>
      <internalNodes>
        0 -1 6241787 -1.1480875546112657e-03</internalNodes>
      <leafValues>
        2.8053930401802063e-01 -1.5423202514648438e-01</leafValues></_>
    <_>
      <internalNodes>
        0 -1 6304472 -1.6707350732758641e-04</internalNodes>
      <leafValues>
        3.0656141042709351e-01 -1.3632872700691223e-01</leafValues></_>
    <_>
      <internalNodes>
        0 -1 5871973 1.2309688609093428e-03</internalNodes>
      <leafValues>
        -1.2907136976718903e-01 3.2264059782028198e-01</leafValues></_>
    <_>
      <internalNodes>
        0 -1 7014 1.8541468307375908e-04</internalNodes>
      <leafValues>
        6.0847736895084381e-02 -7.3681122064590454e-01</leafValues></_>
    <_>
      <internalNodes>
        0 -1 1280460 -2.8350342065095901e-02</internalNodes>
      <leafValues>
        8.7654650211334229e-01 -5.3918287158012390e-02</leafValues></_>
    <_>
      <internalNodes>
        0 -1 3358778 2.7146677020937204e-03</internalNodes>
      <leafValues>
        -1.2142268568277359e-01 3.2785481214523315e-01</leafValues></_>
    <_>
      <internalNodes>
        0 -1 3705519 2.5334677775390446e-04</internalNodes>
      <leafValues>
        7.1979336440563202e-02 -5.8486676216125488e-01</leafValues></_>
    <_>
      <internalNodes>
        0 -1 6101739 -1.7520105466246605e-03</internalNodes>
      <leafValues>
        2.8492492437362671e-01 -1.6666136682033539e-01</leafValues></_>
    <_>
      <internalNodes>
        0 -1 223302 2.4395970627665520e-02</internalNodes>
      <leafValues>
        -1.0892608016729355e-01 4.0206092596054077e-01</leafValues></_>
    <_>
      <internalNodes>
        0 -1 639330 2.7107447385787964e-04</internalNodes>
      <leafValues>
        8.1300817430019379e-02 -5.3716981410980225e-01</leafValues></_>
    <_>
      <internalNodes>
        0 -1 6620535 1.6172875184565783e-03</internalNodes>
      <leafValues>
        -1.1427387595176697e-01 4.1364166140556335e-01</leafValues></_>
    <_>
      <internalNodes>
        0 -1 6598015 -4.2921566637232900e-04</internalNodes>
      <leafValues>
        3.4813696146011353e-01 -1.8021304905414581e-01</leafValues></_>
    <_>
      <internalNodes>
        0 -1 5143853 -2.8441398171707988e-04</internalNodes>
      <leafValues>
        3.3537375926971436e-01 -1.4546950161457062e-01</leafValues></_>
    <_>
      <internalNodes>
        0 -1 191934 6.1505790799856186e-02</internalNodes>
      <leafValues>
        -1.4633175730705261e-01 3.4381130337715149e-01</leafValues></_>
    <_>
      <internalNodes>
        0 -1 3179217 -7.6819765381515026e-03</internalNodes>
      <leafValues>
        4.2748814821243286e-01 -1.4517012238502502e-01</leafValues></_>
    <_>
      <internalNodes>
        0 -1 6506724 8.3184301853179932e-02</internalNodes>
      <leafValues>
        -9.8058648407459259e-02 4.7649899125099182e-01</leafValues></_>
    <_>
      <internalNodes>
        0 -1 5982822 -2.2023473866283894e-04</internalNodes>
      <leafValues>
        3.3051434159278870e-01 -1.4393350481987000e-01</leafValues></_>
    <_>
      <internalNodes>
        0 -1 5229319 -2.0610063802450895e-04</internalNodes>
      <leafValues>
        2.5275951623916626e-01 -1.9346626102924347e-01</leafValues></_>
    <_>
      <internalNodes>
        0 -1 3341208 2.4653360014781356e-04</internalNodes>
      <leafValues>
        6.0084432363510132e-02 -7.3218256235122681e-01</leafValues></_></weakClassifiers></stage6>
</opencv_storage>
