<?xml version="1.0"?>
<opencv_storage>
<stage0>
  <maxWeakCount>10</maxWeakCount>
  <stageThreshold>-1.2394342422485352e+00</stageThreshold>
  <weakClassifiers>
    <_>
      <internalNodes>
        0 -1 13749 -2.6726385951042175e-01</internalNodes>
      <leafValues>
        -7.0876669883728027e-01 6.7932903766632080e-01</leafValues></_>
    <_>
      <internalNodes>
        0 -1 440659 -1.3207085430622101e-03</internalNodes>
      <leafValues>
        -3.2901766896247864e-01 4.4805231690406799e-01</leafValues></_>
    <_>
      <internalNodes>
        0 -1 120761 8.4534004330635071e-02</internalNodes>
      <leafValues>
        -2.1623960137367249e-01 6.0691398382186890e-01</leafValues></_>
    <_>
      <internalNodes>
        0 -1 6672708 1.7890308052301407e-02</internalNodes>
      <leafValues>
        -1.3919509947299957e-01 7.8297400474548340e-01</leafValues></_>
    <_>
      <internalNodes>
        0 -1 6413339 -3.4797703847289085e-03</internalNodes>
      <leafValues>
        5.1652795076370239e-01 -2.8475707769393921e-01</leafValues></_>
    <_>
      <internalNodes>
        0 -1 5952565 -3.3586388453841209e-03</internalNodes>
      <leafValues>
        5.2936404943466187e-01 -2.2031337022781372e-01</leafValues></_>
    <_>
      <internalNodes>
        0 -1 168584 -3.3554411493241787e-03</internalNodes>
      <leafValues>
        -3.2167690992355347e-01 3.5992774367332458e-01</leafValues></_>
    <_>
      <internalNodes>
        0 -1 2879683 3.8815784500911832e-04</internalNodes>
      <leafValues>
        -1.6603542864322662e-01 5.5675315856933594e-01</leafValues></_>
    <_>
      <internalNodes>
        0 -1 3210901 3.1437419354915619e-02</internalNodes>
      <leafValues>
        -1.4554366469383240e-01 6.3483822345733643e-01</leafValues></_>
    <_>
      <internalNodes>
        0 -1 5472713 1.5774909406900406e-02</internalNodes>
      <leafValues>
        -1.8035472929477692e-01 5.5585515499114990e-01</leafValues></_></weakClassifiers></stage0>
</opencv_storage>
