<?xml version="1.0"?>
<opencv_storage>
<stage4>
  <maxWeakCount>32</maxWeakCount>
  <stageThreshold>-9.4409114122390747e-01</stageThreshold>
  <weakClassifiers>
    <_>
      <internalNodes>
        0 -1 13962 -1.3195301289670169e-04</internalNodes>
      <leafValues>
        -4.8771929740905762e-01 4.3022775650024414e-01</leafValues></_>
    <_>
      <internalNodes>
        0 -1 150173 2.5453384965658188e-02</internalNodes>
      <leafValues>
        -2.1805085241794586e-01 3.4518018364906311e-01</leafValues></_>
    <_>
      <internalNodes>
        0 -1 433760 -1.9063159124925733e-03</internalNodes>
      <leafValues>
        -3.4272861480712891e-01 2.2233119606971741e-01</leafValues></_>
    <_>
      <internalNodes>
        0 -1 13952 8.2921425928361714e-05</internalNodes>
      <leafValues>
        8.8508054614067078e-02 -7.4280625581741333e-01</leafValues></_>
    <_>
      <internalNodes>
        0 -1 6222168 -1.5436948742717505e-03</internalNodes>
      <leafValues>
        3.0649670958518982e-01 -2.1043722331523895e-01</leafValues></_>
    <_>
      <internalNodes>
        0 -1 6001013 1.9374892115592957e-02</internalNodes>
      <leafValues>
        -2.2086898982524872e-01 3.9749690890312195e-01</leafValues></_>
    <_>
      <internalNodes>
        0 -1 6363680 -1.4084941940382123e-03</internalNodes>
      <leafValues>
        3.7975510954856873e-01 -1.3422183692455292e-01</leafValues></_>
    <_>
      <internalNodes>
        0 -1 4644704 -1.0899433400481939e-03</internalNodes>
      <leafValues>
        2.6810660958290100e-01 -1.8586166203022003e-01</leafValues></_>
    <_>
      <internalNodes>
        0 -1 2269504 -8.6925297975540161e-02</internalNodes>
      <leafValues>
        8.0764013528823853e-01 -8.9812129735946655e-02</leafValues></_>
    <_>
      <internalNodes>
        0 -1 3569655 -5.4001540411263704e-04</internalNodes>
      <leafValues>
        2.8160637617111206e-01 -2.2340489923954010e-01</leafValues></_>
    <_>
      <internalNodes>
        0 -1 2049649 -2.3470091400668025e-04</internalNodes>
      <leafValues>
        -5.6619471311569214e-01 9.2897407710552216e-02</leafValues></_>
    <_>
      <internalNodes>
        0 -1 5732219 -3.2217064872384071e-03</internalNodes>
      <leafValues>
        3.1468448042869568e-01 -1.7163819074630737e-01</leafValues></_>
    <_>
      <internalNodes>
        0 -1 87807 -8.9706954895518720e-05</internalNodes>
      <leafValues>
        -6.8707919120788574e-01 8.9415840804576874e-02</leafValues></_>
    <_>
      <internalNodes>
        0 -1 715647 -1.7770845443010330e-02</internalNodes>
      <leafValues>
        2.9135516285896301e-01 -1.8456737697124481e-01</leafValues></_>
    <_>
      <internalNodes>
        0 -1 5392771 1.4618052542209625e-01</internalNodes>
      <leafValues>
        -8.5753589868545532e-02 5.1702433824539185e-01</leafValues></_>
    <_>
      <internalNodes>
        0 -1 6079369 -7.8217679401859641e-04</internalNodes>
      <leafValues>
        3.2748594880104065e-01 -1.4787353575229645e-01</leafValues></_>
    <_>
      <internalNodes>
        0 -1 103715 4.9047585343942046e-04</internalNodes>
      <leafValues>
        8.4395036101341248e-02 -6.5546810626983643e-01</leafValues></_>
    <_>
      <internalNodes>
        0 -1 5820677 -6.2597694341093302e-04</internalNodes>
      <leafValues>
        3.8146311044692993e-01 -1.3583549857139587e-01</leafValues></_>
    <_>
      <internalNodes>
        0 -1 4962540 -4.1189542971551418e-03</internalNodes>
      <leafValues>
        -7.0539909601211548e-01 7.1520395576953888e-02</leafValues></_>
    <_>
      <internalNodes>
        0 -1 5648619 -2.5613969191908836e-03</internalNodes>
      <leafValues>
        3.8705334067344666e-01 -1.3162952661514282e-01</leafValues></_>
    <_>
      <internalNodes>
        0 -1 5467487 3.8332704571075737e-04</internalNodes>
      <leafValues>
        -1.5852993726730347e-01 2.9019269347190857e-01</leafValues></_>
    <_>
      <internalNodes>
        0 -1 3753282 -1.0187641601078212e-04</internalNodes>
      <leafValues>
        -4.4401407241821289e-01 1.0439645498991013e-01</leafValues></_>
    <_>
      <internalNodes>
        0 -1 5732589 -4.5671185944229364e-04</internalNodes>
      <leafValues>
        3.4183400869369507e-01 -1.4142648875713348e-01</leafValues></_>
    <_>
      <internalNodes>
        0 -1 2456342 -3.4845122718252242e-04</internalNodes>
      <leafValues>
        -6.8027311563491821e-01 6.8682007491588593e-02</leafValues></_>
    <_>
      <internalNodes>
        0 -1 5962599 -2.0579292322508991e-04</internalNodes>
      <leafValues>
        2.7633735537528992e-01 -1.6230890154838562e-01</leafValues></_>
    <_>
      <internalNodes>
        0 -1 3922875 -3.6803504917770624e-03</internalNodes>
      <leafValues>
        2.7310958504676819e-01 -2.3775781691074371e-01</leafValues></_>
    <_>
      <internalNodes>
        0 -1 3243 -7.2207796620205045e-04</internalNodes>
      <leafValues>
        -3.2264560461044312e-01 1.5421019494533539e-01</leafValues></_>
    <_>
      <internalNodes>
        0 -1 4355433 4.3608336709439754e-03</internalNodes>
      <leafValues>
        -1.5219613909721375e-01 3.4225693345069885e-01</leafValues></_>
    <_>
      <internalNodes>
        0 -1 2633359 -1.3337390497326851e-02</internalNodes>
      <leafValues>
        6.2231189012527466e-01 -7.0970639586448669e-02</leafValues></_>
    <_>
      <internalNodes>
        0 -1 4837421 -1.0495043825358152e-03</internalNodes>
      <leafValues>
        3.4917163848876953e-01 -1.3419482111930847e-01</leafValues></_>
    <_>
      <internalNodes>
        0 -1 4833951 1.5811023768037558e-03</internalNodes>
      <leafValues>
        -1.7809773981571198e-01 3.3674287796020508e-01</leafValues></_>
    <_>
      <internalNodes>
        0 -1 3590777 3.2391303102485836e-04</internalNodes>
      <leafValues>
        9.3946546316146851e-02 -5.7755964994430542e-01</leafValues></_></weakClassifiers></stage4>
</opencv_storage>
