<?xml version="1.0"?>
<opencv_storage>
<stage2>
  <maxWeakCount>33</maxWeakCount>
  <stageThreshold>-1.0411140918731689e+00</stageThreshold>
  <weakClassifiers>
    <_>
      <internalNodes>
        0 -1 2018 2.0318266004323959e-02</internalNodes>
      <leafValues>
        4.4365571811795235e-03 5.6897646188735962e-01</leafValues></_>
    <_>
      <internalNodes>
        0 -1 6602695 -2.4648598628118634e-04</internalNodes>
      <leafValues>
        4.4531664252281189e-01 -1.3787737488746643e-01</leafValues></_>
    <_>
      <internalNodes>
        0 -1 4956880 1.7587848007678986e-02</internalNodes>
      <leafValues>
        -1.0262489318847656e-01 6.3797581195831299e-01</leafValues></_>
    <_>
      <internalNodes>
        0 -1 6109867 -6.8572438322007656e-03</internalNodes>
      <leafValues>
        4.0863284468650818e-01 -2.6461935043334961e-01</leafValues></_>
    <_>
      <internalNodes>
        0 -1 6006766 -2.8808510396629572e-03</internalNodes>
      <leafValues>
        3.5142728686332703e-01 -1.8719394505023956e-01</leafValues></_>
    <_>
      <internalNodes>
        0 -1 6457780 -4.6906154602766037e-04</internalNodes>
      <leafValues>
        3.4424594044685364e-01 -2.0884153246879578e-01</leafValues></_>
    <_>
      <internalNodes>
        0 -1 3208105 7.9135872423648834e-02</internalNodes>
      <leafValues>
        -2.2994621098041534e-01 3.3998072147369385e-01</leafValues></_>
    <_>
      <internalNodes>
        0 -1 5221833 4.0581215173006058e-02</internalNodes>
      <leafValues>
        -1.3983155786991119e-01 5.4801368713378906e-01</leafValues></_>
    <_>
      <internalNodes>
        0 -1 6034496 -6.4144528005272150e-04</internalNodes>
      <leafValues>
        3.8036370277404785e-01 -1.4782810211181641e-01</leafValues></_>
    <_>
      <internalNodes>
        0 -1 6682144 -1.4028896111994982e-04</internalNodes>
      <leafValues>
        4.7713389992713928e-01 -1.4388747513294220e-01</leafValues></_>
    <_>
      <internalNodes>
        0 -1 1680340 -1.4698140323162079e-01</internalNodes>
      <leafValues>
        8.3522236347198486e-01 -4.5721020549535751e-02</leafValues></_>
    <_>
      <internalNodes>
        0 -1 4121428 9.5489285886287689e-03</internalNodes>
      <leafValues>
        -7.9711765050888062e-02 6.2157720327377319e-01</leafValues></_>
    <_>
      <internalNodes>
        0 -1 5849595 -5.0790615379810333e-02</internalNodes>
      <leafValues>
        7.2790700197219849e-01 -6.7681312561035156e-02</leafValues></_>
    <_>
      <internalNodes>
        0 -1 4117956 -2.6525840163230896e-02</internalNodes>
      <leafValues>
        5.6297236680984497e-01 -7.9791888594627380e-02</leafValues></_>
    <_>
      <internalNodes>
        0 -1 653318 -5.5519898887723684e-04</internalNodes>
      <leafValues>
        -2.9432958364486694e-01 1.8428467214107513e-01</leafValues></_>
    <_>
      <internalNodes>
        0 -1 5171380 -3.9092695806175470e-04</internalNodes>
      <leafValues>
        3.1963780522346497e-01 -1.8885822594165802e-01</leafValues></_>
    <_>
      <internalNodes>
        0 -1 1235630 -1.0339763248339295e-03</internalNodes>
      <leafValues>
        2.8393489122390747e-01 -1.8794769048690796e-01</leafValues></_>
    <_>
      <internalNodes>
        0 -1 1695155 4.9081556499004364e-02</internalNodes>
      <leafValues>
        -1.0321693122386932e-01 5.8033740520477295e-01</leafValues></_>
    <_>
      <internalNodes>
        0 -1 4466387 -2.2662747651338577e-03</internalNodes>
      <leafValues>
        3.1061431765556335e-01 -1.7187488079071045e-01</leafValues></_>
    <_>
      <internalNodes>
        0 -1 2179773 -8.0543691292405128e-03</internalNodes>
      <leafValues>
        3.8243293762207031e-01 -1.4612346887588501e-01</leafValues></_>
    <_>
      <internalNodes>
        0 -1 2555147 -4.9652025103569031e-02</internalNodes>
      <leafValues>
        7.8962475061416626e-01 -4.8274446278810501e-02</leafValues></_>
    <_>
      <internalNodes>
        0 -1 848937 -2.3773971479386091e-03</internalNodes>
      <leafValues>
        -3.8181900978088379e-01 1.2271469086408615e-01</leafValues></_>
    <_>
      <internalNodes>
        0 -1 5370273 -1.6218863311223686e-04</internalNodes>
      <leafValues>
        2.6855581998825073e-01 -1.6633757948875427e-01</leafValues></_>
    <_>
      <internalNodes>
        0 -1 5888206 2.5092752184718847e-04</internalNodes>
      <leafValues>
        -1.1321087926626205e-01 3.7042519450187683e-01</leafValues></_>
    <_>
      <internalNodes>
        0 -1 3807358 1.5865877503529191e-04</internalNodes>
      <leafValues>
        1.9494031369686127e-01 -2.2848443686962128e-01</leafValues></_>
    <_>
      <internalNodes>
        0 -1 6244118 -5.8889016509056091e-04</internalNodes>
      <leafValues>
        3.4201046824455261e-01 -1.2565295398235321e-01</leafValues></_>
    <_>
      <internalNodes>
        0 -1 3964504 -1.2820338830351830e-02</internalNodes>
      <leafValues>
        3.3575001358985901e-01 -1.5817472338676453e-01</leafValues></_>
    <_>
      <internalNodes>
        0 -1 1824496 6.0189637588337064e-04</internalNodes>
      <leafValues>
        1.1363225430250168e-01 -4.4588300585746765e-01</leafValues></_>
    <_>
      <internalNodes>
        0 -1 6649379 1.2061883695423603e-02</internalNodes>
      <leafValues>
        -5.8560233563184738e-02 8.8015073537826538e-01</leafValues></_>
    <_>
      <internalNodes>
        0 -1 4621233 1.8651548773050308e-02</internalNodes>
      <leafValues>
        -4.3567392975091934e-02 7.8224939107894897e-01</leafValues></_>
    <_>
      <internalNodes>
        0 -1 4159114 1.0065989568829536e-02</internalNodes>
      <leafValues>
        -8.9010484516620636e-02 4.5496803522109985e-01</leafValues></_>
    <_>
      <internalNodes>
        0 -1 2541181 -2.9102593543939292e-05</internalNodes>
      <leafValues>
        2.4275945127010345e-01 -1.8929301202297211e-01</leafValues></_>
    <_>
      <internalNodes>
        0 -1 5842969 -4.9150793347507715e-04</internalNodes>
      <leafValues>
        2.6049438118934631e-01 -1.7236703634262085e-01</leafValues></_></weakClassifiers></stage2>
</opencv_storage>
