<?xml version="1.0"?>
<opencv_storage>
<cascade>
  <stageType>BOOST</stageType>
  <featureType>LBP</featureType>
  <height>40</height>
  <width>40</width>
  <stageParams>
    <boostType>GAB</boostType>
    <minHitRate>9.9900001287460327e-01</minHitRate>
    <maxFalseAlarm>5.0000000000000000e-01</maxFalseAlarm>
    <weightTrimRate>9.4999999999999996e-01</weightTrimRate>
    <maxDepth>1</maxDepth>
    <maxWeakCount>100</maxWeakCount></stageParams>
  <featureParams>
    <maxCatCount>256</maxCatCount>
    <featSize>1</featSize></featureParams>
  <stageNum>8</stageNum>
  <stages>
    <!-- stage 0 -->
    <_>
      <maxWeakCount>3</maxWeakCount>
      <stageThreshold>-1.2255775928497314e+00</stageThreshold>
      <weakClassifiers>
        <_>
          <internalNodes>
            0 -1 15 -2100417 -11329 -178922497 -1025 -2360321 -22085
            -1025 -1025</internalNodes>
          <leafValues>
            -9.9398040771484375e-01 9.2805755138397217e-01</leafValues></_>
        <_>
          <internalNodes>
            0 -1 4 -4113 -2065 -615261185 -3073 -73667665 -73401393
            -67109889 -1</internalNodes>
          <leafValues>
            -9.9142152070999146e-01 8.4898090362548828e-01</leafValues></_>
        <_>
          <internalNodes>
            0 -1 1 -805310465 -2098209 -184295969 -2099201 -606082049
            -73675781 -610276353 -1</internalNodes>
          <leafValues>
            -9.6762847900390625e-01 7.5982445478439331e-01</leafValues></_></weakClassifiers></_>
    <!-- stage 1 -->
    <_>
      <maxWeakCount>4</maxWeakCount>
      <stageThreshold>-2.3338794708251953e+00</stageThreshold>
      <weakClassifiers>
        <_>
          <internalNodes>
            0 -1 32 -129 -1 -1 -1 -1 -1 -1 -1</internalNodes>
          <leafValues>
            -9.7560977935791016e-01 5.3381639719009399e-01</leafValues></_>
        <_>
          <internalNodes>
            0 -1 7 -1 -1 -67175170 -5 -1 -1 -327681 -1</internalNodes>
          <leafValues>
            -9.5028579235076904e-01 5.6414264440536499e-01</leafValues></_>
        <_>
          <internalNodes>
            0 -1 10 -20545 -1 -1 -1 -536887297 -65 -16385 -1</internalNodes>
          <leafValues>
            -9.0796995162963867e-01 5.9338337182998657e-01</leafValues></_>
        <_>
          <internalNodes>
            0 -1 2 -16842753 -1 -1057 -1025 -262145 -1025 -1 -1</internalNodes>
          <leafValues>
            -9.2833942174911499e-01 4.9998611211776733e-01</leafValues></_></weakClassifiers></_>
    <!-- stage 2 -->
    <_>
      <maxWeakCount>4</maxWeakCount>
      <stageThreshold>-2.3141458034515381e+00</stageThreshold>
      <weakClassifiers>
        <_>
          <internalNodes>
            0 -1 23 -1 -560257 -71303169 -2049 -1 -513 -34210578 -524289</internalNodes>
          <leafValues>
            -9.4184380769729614e-01 3.4631267189979553e-01</leafValues></_>
        <_>
          <internalNodes>
            0 -1 16 -193 -1 -1 -1 -67108865 -16777729 -555746049 -257</internalNodes>
          <leafValues>
            -9.2864376306533813e-01 4.4318741559982300e-01</leafValues></_>
        <_>
          <internalNodes>
            0 -1 34 -33554433 -1027 -536871425 -458755 -1025 -1 -4097
            -196612</internalNodes>
          <leafValues>
            -8.8019967079162598e-01 5.3059905767440796e-01</leafValues></_>
        <_>
          <internalNodes>
            0 -1 5 -1 -33 -2049 -52893814 -794824705 -71836737 -68157441
            -1</internalNodes>
          <leafValues>
            -8.9623999595642090e-01 4.3654137849807739e-01</leafValues></_></weakClassifiers></_>
    <!-- stage 3 -->
    <_>
      <maxWeakCount>4</maxWeakCount>
      <stageThreshold>-2.1008036136627197e+00</stageThreshold>
      <weakClassifiers>
        <_>
          <internalNodes>
            0 -1 26 -1 -137109513 -545260545 -2049 -1 -65 -319427345
            -524297</internalNodes>
          <leafValues>
            -8.9760756492614746e-01 4.6646106243133545e-01</leafValues></_>
        <_>
          <internalNodes>
            0 -1 13 -16385 -524289 -786433 -202115331 -1 -68028929
            -101450497 -1966345</internalNodes>
          <leafValues>
            -8.5498267412185669e-01 5.1048320531845093e-01</leafValues></_>
        <_>
          <internalNodes>
            0 -1 6 -134742033 -202115081 1895036081 -252579599
            -185073665 -235670861 -84872013 -118098445</internalNodes>
          <leafValues>
            -9.0955060720443726e-01 4.6034359931945801e-01</leafValues></_>
        <_>
          <internalNodes>
            0 -1 25 25645311 386004864 -2101317 -548014081 1288490446
            -34799619 -269484033 -40894465</internalNodes>
          <leafValues>
            -7.9027253389358521e-01 5.6133723258972168e-01</leafValues></_></weakClassifiers></_>
    <!-- stage 4 -->
    <_>
      <maxWeakCount>4</maxWeakCount>
      <stageThreshold>-2.0607268810272217e+00</stageThreshold>
      <weakClassifiers>
        <_>
          <internalNodes>
            0 -1 20 -131073 -140289 -1 -3073 -198722 -1052673 -4196353
            -1025</internalNodes>
          <leafValues>
            -8.7899404764175415e-01 5.2868491411209106e-01</leafValues></_>
        <_>
          <internalNodes>
            0 -1 29 -67108865 -547392513 -201328641 -37750977 -1537
            -17409 -33690418 -34210569</internalNodes>
          <leafValues>
            -8.8878792524337769e-01 4.5129561424255371e-01</leafValues></_>
        <_>
          <internalNodes>
            0 -1 36 -129 -1 -70255105 -1056769 -823140609 -839914258
            -372257329 -51446577</internalNodes>
          <leafValues>
            -8.2182776927947998e-01 5.7738530635833740e-01</leafValues></_>
        <_>
          <internalNodes>
            0 -1 3 -8209 -2257 -133121 -524897 -67371009 -17 -65537
            -66117</internalNodes>
          <leafValues>
            -7.8038108348846436e-01 5.2888286113739014e-01</leafValues></_></weakClassifiers></_>
    <!-- stage 5 -->
    <_>
      <maxWeakCount>6</maxWeakCount>
      <stageThreshold>-2.3027365207672119e+00</stageThreshold>
      <weakClassifiers>
        <_>
          <internalNodes>
            0 -1 18 294770175 -1 -1 -1 -327681 -3585 -1 -67371079</internalNodes>
          <leafValues>
            -9.3902760744094849e-01 2.3583878576755524e-01</leafValues></_>
        <_>
          <internalNodes>
            0 -1 9 -2097153 -8391745 -2049 -235667473 -606077953
            -6301249 -33555457 -587991069</internalNodes>
          <leafValues>
            -7.8792631626129150e-01 5.5714046955108643e-01</leafValues></_>
        <_>
          <internalNodes>
            0 -1 0 -268435457 -14813405 -14680297 -12324045 -5111809
            -15535343 -16253009 -6031437</internalNodes>
          <leafValues>
            -7.6741653680801392e-01 5.9502738714218140e-01</leafValues></_>
        <_>
          <internalNodes>
            0 -1 37 -2097153 -205807173 -2085617665 -146554577
            -554902050 -71304257 -1410020282 -1</internalNodes>
          <leafValues>
            -6.9353318214416504e-01 6.0117167234420776e-01</leafValues></_>
        <_>
          <internalNodes>
            0 -1 33 -1087156941 -1 -1 -32769 -4456453 -2097153 -4456449
            -1</internalNodes>
          <leafValues>
            -7.5318413972854614e-01 5.3481167554855347e-01</leafValues></_>
        <_>
          <internalNodes>
            0 -1 24 -268435477 -301991937 -1885868313 -1612723217
            -147326985 1609684976 -152588574 7851751</internalNodes>
          <leafValues>
            -8.6965864896774292e-01 4.6348488330841064e-01</leafValues></_></weakClassifiers></_>
    <!-- stage 6 -->
    <_>
      <maxWeakCount>6</maxWeakCount>
      <stageThreshold>-2.1314527988433838e+00</stageThreshold>
      <weakClassifiers>
        <_>
          <internalNodes>
            0 -1 21 -543162369 2132148177 -4195329 -538970113 -858992641
            -197637 -805306369 -1</internalNodes>
          <leafValues>
            -8.6788678169250488e-01 4.7103726863861084e-01</leafValues></_>
        <_>
          <internalNodes>
            0 -1 8 -1 -5505027 -547890689 -291373151 -69211137 -65
            -339756625 -1</internalNodes>
          <leafValues>
            -7.6735574007034302e-01 4.9294182658195496e-01</leafValues></_>
        <_>
          <internalNodes>
            0 -1 30 -134283266 -54724675 -58785798 -33554435 -1 -720899
            -33562625 -570556427</internalNodes>
          <leafValues>
            -7.1667081117630005e-01 5.4623031616210938e-01</leafValues></_>
        <_>
          <internalNodes>
            0 -1 31 -1659281967 -32769 -1 -32769 -1342185473 -1
            -1342193665 -536879107</internalNodes>
          <leafValues>
            -6.9654458761215210e-01 5.5381733179092407e-01</leafValues></_>
        <_>
          <internalNodes>
            0 -1 11 2062523439 -152068113 -1171311057 -16793881
            1853296688 -1627402658 2121938687 -547913897</internalNodes>
          <leafValues>
            -7.7214586734771729e-01 4.7532385587692261e-01</leafValues></_>
        <_>
          <internalNodes>
            0 -1 35 -1476417737 -1153 -285253633 -589827 -2049 -16778309
            -513 -17287940</internalNodes>
          <leafValues>
            -8.0868053436279297e-01 4.4876712560653687e-01</leafValues></_></weakClassifiers></_>
    <!-- stage 7 -->
    <_>
      <maxWeakCount>7</maxWeakCount>
      <stageThreshold>-2.9314234256744385e+00</stageThreshold>
      <weakClassifiers>
        <_>
          <internalNodes>
            0 -1 19 -235274753 -131073 -1025 -3077 -197698 -21573 -1057
            -1</internalNodes>
          <leafValues>
            -8.8399678468704224e-01 3.6685714125633240e-01</leafValues></_>
        <_>
          <internalNodes>
            0 -1 22 -71567873 352711941 -314577217 1600126747 1154401775
            1154274724 -807408641 -807403521</internalNodes>
          <leafValues>
            -7.7878314256668091e-01 4.8466059565544128e-01</leafValues></_>
        <_>
          <internalNodes>
            0 -1 17 -12846081 1426260225 400283615 429601043 -750781441
            -1825497045 -655636 -1</internalNodes>
          <leafValues>
            -7.7656269073486328e-01 4.4230645895004272e-01</leafValues></_>
        <_>
          <internalNodes>
            0 -1 14 -20801 -129 -1409417217 -2057 -1075855365 -1902085
            -541697 -1312631</internalNodes>
          <leafValues>
            -7.7776652574539185e-01 4.3937411904335022e-01</leafValues></_>
        <_>
          <internalNodes>
            0 -1 12 -16786425 -8691 -164827609 -221 -75519812 -822146036
            2138797819 -9210073</internalNodes>
          <leafValues>
            -6.3454419374465942e-01 5.5675399303436279e-01</leafValues></_>
        <_>
          <internalNodes>
            0 -1 28 17105647 -1853787256 -2097165 -711502369 -674378257
            -1029 -1312001 -2891777</internalNodes>
          <leafValues>
            -7.7952146530151367e-01 4.7573262453079224e-01</leafValues></_>
        <_>
          <internalNodes>
            0 -1 27 -12583941 1468203159 -146843666 -145247233
            -1149255701 -71600133 -304092018 2088234599</internalNodes>
          <leafValues>
            -7.4680078029632568e-01 4.7314476966857910e-01</leafValues></_></weakClassifiers></_></stages>
  <features>
    <_>
      <rect>
        0 0 7 8</rect></_>
    <_>
      <rect>
        0 0 9 8</rect></_>
    <_>
      <rect>
        0 1 8 13</rect></_>
    <_>
      <rect>
        0 3 13 4</rect></_>
    <_>
      <rect>
        0 3 13 7</rect></_>
    <_>
      <rect>
        0 16 10 8</rect></_>
    <_>
      <rect>
        1 1 13 8</rect></_>
    <_>
      <rect>
        1 14 13 8</rect></_>
    <_>
      <rect>
        3 16 4 7</rect></_>
    <_>
      <rect>
        5 22 8 5</rect></_>
    <_>
      <rect>
        7 3 8 5</rect></_>
    <_>
      <rect>
        7 29 6 2</rect></_>
    <_>
      <rect>
        8 28 5 2</rect></_>
    <_>
      <rect>
        9 2 7 6</rect></_>
    <_>
      <rect>
        9 4 7 4</rect></_>
    <_>
      <rect>
        10 0 10 8</rect></_>
    <_>
      <rect>
        10 2 10 5</rect></_>
    <_>
      <rect>
        10 16 10 8</rect></_>
    <_>
      <rect>
        11 10 5 5</rect></_>
    <_>
      <rect>
        11 11 4 6</rect></_>
    <_>
      <rect>
        11 11 4 7</rect></_>
    <_>
      <rect>
        11 14 6 4</rect></_>
    <_>
      <rect>
        11 15 6 3</rect></_>
    <_>
      <rect>
        12 18 9 6</rect></_>
    <_>
      <rect>
        12 26 7 3</rect></_>
    <_>
      <rect>
        13 13 5 4</rect></_>
    <_>
      <rect>
        13 21 9 5</rect></_>
    <_>
      <rect>
        14 22 7 4</rect></_>
    <_>
      <rect>
        15 12 4 4</rect></_>
    <_>
      <rect>
        15 18 7 6</rect></_>
    <_>
      <rect>
        15 28 7 4</rect></_>
    <_>
      <rect>
        17 3 2 2</rect></_>
    <_>
      <rect>
        18 1 7 7</rect></_>
    <_>
      <rect>
        18 2 3 3</rect></_>
    <_>
      <rect>
        18 25 1 1</rect></_>
    <_>
      <rect>
        19 26 1 1</rect></_>
    <_>
      <rect>
        20 2 6 7</rect></_>
    <_>
      <rect>
        23 16 5 7</rect></_></features></cascade>
</opencv_storage>
