<?xml version="1.0"?>
<opencv_storage>
<stage3>
  <maxWeakCount>4</maxWeakCount>
  <stageThreshold>-2.1008036136627197e+00</stageThreshold>
  <weakClassifiers>
    <_>
      <internalNodes>
        0 -1 39059 -1 -137109513 -545260545 -2049 -1 -65 -319427345
        -524297</internalNodes>
      <leafValues>
        -8.9760756492614746e-01 4.6646106243133545e-01</leafValues></_>
    <_>
      <internalNodes>
        0 -1 27637 -16385 -524289 -786433 -202115331 -1 -68028929
        -101450497 -1966345</internalNodes>
      <leafValues>
        -8.5498267412185669e-01 5.1048320531845093e-01</leafValues></_>
    <_>
      <internalNodes>
        0 -1 3712 -134742033 -202115081 1895036081 -252579599 -185073665
        -235670861 -84872013 -118098445</internalNodes>
      <leafValues>
        -9.0955060720443726e-01 4.6034359931945801e-01</leafValues></_>
    <_>
      <internalNodes>
        0 -1 38506 25645311 386004864 -2101317 -548014081 1288490446
        -34799619 -269484033 -40894465</internalNodes>
      <leafValues>
        -7.9027253389358521e-01 5.6133723258972168e-01</leafValues></_></weakClassifiers></stage3>
</opencv_storage>
