<?xml version="1.0"?>
<opencv_storage>
<stage2>
  <maxWeakCount>4</maxWeakCount>
  <stageThreshold>-2.3141458034515381e+00</stageThreshold>
  <weakClassifiers>
    <_>
      <internalNodes>
        0 -1 36548 -1 -560257 -71303169 -2049 -1 -513 -34210578 -524289</internalNodes>
      <leafValues>
        -9.4184380769729614e-01 3.4631267189979553e-01</leafValues></_>
    <_>
      <internalNodes>
        0 -1 30272 -193 -1 -1 -1 -67108865 -16777729 -555746049 -257</internalNodes>
      <leafValues>
        -9.2864376306533813e-01 4.4318741559982300e-01</leafValues></_>
    <_>
      <internalNodes>
        0 -1 49155 -33554433 -1027 -536871425 -458755 -1025 -1 -4097
        -196612</internalNodes>
      <leafValues>
        -8.8019967079162598e-01 5.3059905767440796e-01</leafValues></_>
    <_>
      <internalNodes>
        0 -1 2263 -1 -33 -2049 -52893814 -794824705 -71836737 -68157441
        -1</internalNodes>
      <leafValues>
        -8.9623999595642090e-01 4.3654137849807739e-01</leafValues></_></weakClassifiers></stage2>
</opencv_storage>
