<?xml version="1.0"?>
<opencv_storage>
<stage15>
  <maxWeakCount>66</maxWeakCount>
  <stageThreshold>-1.8237107992172241e+00</stageThreshold>
  <weakClassifiers>
    <_>
      <internalNodes>
        0 -1 338 -11282437 -2105731 -212698177 2013124089 -402924293
        -1353464 230802687 -9707521</internalNodes>
      <leafValues>
        -7.2821944952011108e-01 -4.1125541925430298e-01</leafValues></_>
    <_>
      <internalNodes>
        0 -1 1416 -579217668 2065446772 874482302 -609018158 -942762100
        -642580633 -330514705 -772968478</internalNodes>
      <leafValues>
        -2.7619096636772156e-01 1.7658382654190063e-02</leafValues></_>
    <_>
      <internalNodes>
        0 -1 726 1286491864 185023150 1574907024 -673997151 1404471548
        1369128397 -1980223821 382818174</internalNodes>
      <leafValues>
        -1.8858520686626434e-01 1.0120654106140137e-01</leafValues></_>
    <_>
      <internalNodes>
        0 -1 131 -1613768538 -1661141073 -21030774 -1247390978
        -395387410 1960121210 -342758 -1125101079</internalNodes>
      <leafValues>
        -1.3209323585033417e-01 1.3627535104751587e-01</leafValues></_>
    <_>
      <internalNodes>
        0 -1 118 209715368 103441800 -1908143966 -2132656348 575930966
        635421632 72973568 23863573</internalNodes>
      <leafValues>
        -4.9040818214416504e-01 3.6148924380540848e-02</leafValues></_>
    <_>
      <internalNodes>
        0 -1 44 1652637815 -556815443 1563718615 903581695 -1679097893
        1341626086 -1407390565 -325194117</internalNodes>
      <leafValues>
        -9.0386293828487396e-02 1.8630568683147430e-01</leafValues></_>
    <_>
      <internalNodes>
        0 -1 210 -1597051904 174867180 553519456 107218896 1060326181
        810608991 -199869166 618951527</internalNodes>
      <leafValues>
        -4.5346286892890930e-01 7.3842652142047882e-02</leafValues></_>
    <_>
      <internalNodes>
        0 -1 463 997109874 -140189430 -119794255 -255413613 1079250383
        -1038204846 1285824507 1384461794</internalNodes>
      <leafValues>
        -1.7957071959972382e-01 9.0392559766769409e-02</leafValues></_>
    <_>
      <internalNodes>
        0 -1 1535 514852360 630240865 1726481111 -1465848964 921330244
        -614277322 919479812 -1906173836</internalNodes>
      <leafValues>
        -2.8404492139816284e-01 8.4525674581527710e-02</leafValues></_>
    <_>
      <internalNodes>
        0 -1 1059 -204698600 -1970781010 769303388 -2087552990
        1720221536 -1291846314 347366873 1658224406</internalNodes>
      <leafValues>
        -1.9471754133701324e-01 9.5105975866317749e-02</leafValues></_>
    <_>
      <internalNodes>
        0 -1 1058 -1067647376 924006845 -997216936 240286758 -1241490496
        1823320391 -2041306672 1606836331</internalNodes>
      <leafValues>
        -1.7632113397121429e-01 1.0675675421953201e-01</leafValues></_>
    <_>
      <internalNodes>
        0 -1 1156 42536224 -1394594544 -148956609 -581096436 -91721432
        1775909618 -998976410 -1289928833</internalNodes>
      <leafValues>
        -1.8709455430507660e-01 1.0353732109069824e-01</leafValues></_>
    <_>
      <internalNodes>
        0 -1 384 -114852905 1475661610 1163598207 -339501061 -12589061
        -1102096500 1330104063 -545267794</internalNodes>
      <leafValues>
        -6.6247567534446716e-02 2.9230165481567383e-01</leafValues></_>
    <_>
      <internalNodes>
        0 -1 1444 -1675432573 -369311 -323427692 1455071226 -998453998
        -555773975 -173416726 -357914274</internalNodes>
      <leafValues>
        -1.0205932706594467e-01 1.8086706101894379e-01</leafValues></_>
    <_>
      <internalNodes>
        0 -1 1237 -330170080 -2082264790 -8393934 -553739602 -1264511548
        1200480374 -228040608 -388255687</internalNodes>
      <leafValues>
        -1.6549506783485413e-01 1.1420643329620361e-01</leafValues></_>
    <_>
      <internalNodes>
        0 -1 216 972553631 -92274690 -269309071 -1175985159 2004215557
        -8953857 -823265380 -1772787884</internalNodes>
      <leafValues>
        -8.9696712791919708e-02 2.2380098700523376e-01</leafValues></_>
    <_>
      <internalNodes>
        0 -1 641 -1402319726 -254901435 207956488 -1238061470 166706230
        -1302524282 -564701964 1703403004</internalNodes>
      <leafValues>
        -1.8767239153385162e-01 1.0482499003410339e-01</leafValues></_>
    <_>
      <internalNodes>
        0 -1 1598 -1698789300 -330602095 -50923757 -721904660 2139056769
        2086219005 -1558997017 -1167134798</internalNodes>
      <leafValues>
        -1.3846613466739655e-01 1.4203010499477386e-01</leafValues></_>
    <_>
      <internalNodes>
        0 -1 1460 -558579680 1614951977 894237360 -73899006 2104633832
        655272934 2046495352 439697094</internalNodes>
      <leafValues>
        -1.8578308820724487e-01 9.8314560949802399e-02</leafValues></_>
    <_>
      <internalNodes>
        0 -1 1469 -1239096192 -1473890912 -2007011781 2141432768
        -6447818 -831202406 913667110 528958950</internalNodes>
      <leafValues>
        -1.7805647850036621e-01 1.0727922618389130e-01</leafValues></_>
    <_>
      <internalNodes>
        0 -1 1434 -1059068037 -65249612 -1167778563 -1137631242
        -1748617734 -46154017 733401773 -1018855697</internalNodes>
      <leafValues>
        -9.6432477235794067e-02 2.0263130962848663e-01</leafValues></_>
    <_>
      <internalNodes>
        0 -1 1161 1110191062 184100808 915909290 561066179 56115824
        -1189511574 -128093577 514078472</internalNodes>
      <leafValues>
        -2.3030897974967957e-01 8.2894019782543182e-02</leafValues></_>
    <_>
      <internalNodes>
        0 -1 514 78392576 150742314 -1538459792 -1907752640 1156879221
        -1999343478 904413460 76822612</internalNodes>
      <leafValues>
        -5.6210714578628540e-01 3.2955653965473175e-02</leafValues></_>
    <_>
      <internalNodes>
        0 -1 250 481046536 100084710 802067786 -1282606450 -78267128
        476693370 1249601905 909267359</internalNodes>
      <leafValues>
        -2.1390394866466522e-01 8.7881192564964294e-02</leafValues></_>
    <_>
      <internalNodes>
        0 -1 100 -2004858812 -1538505490 980421366 679110754 1777337396
        614101605 385757988 207110737</internalNodes>
      <leafValues>
        -3.9432916045188904e-01 4.6486586332321167e-02</leafValues></_>
    <_>
      <internalNodes>
        0 -1 7 1937767359 -79473273 -928043470 -1302004169 829220253
        -322470161 -671089463 -370035265</internalNodes>
      <leafValues>
        -8.0539874732494354e-02 2.4278356134891510e-01</leafValues></_>
    <_>
      <internalNodes>
        0 -1 585 1903547532 1894563183 2111487386 -743610433 1853101500
        -1472286532 -461922665 330517839</internalNodes>
      <leafValues>
        -1.2010426819324493e-01 1.6016764938831329e-01</leafValues></_>
    <_>
      <internalNodes>
        0 -1 770 1091377974 -1918342681 -1204419056 1626398400 172758313
        -146224390 -902542052 557141959</internalNodes>
      <leafValues>
        -2.2339378297328949e-01 8.9112557470798492e-02</leafValues></_>
    <_>
      <internalNodes>
        0 -1 733 -624309953 -1234068313 -1980190143 1509519955
        -1089482182 2129542910 2129747339 -562251040</internalNodes>
      <leafValues>
        -9.5475785434246063e-02 2.0222121477127075e-01</leafValues></_>
    <_>
      <internalNodes>
        0 -1 749 -1203595860 656549818 -191343779 1227450244 576539294
        -1462068768 -2093723300 1341467703</internalNodes>
      <leafValues>
        -2.0713637769222260e-01 9.5540925860404968e-02</leafValues></_>
    <_>
      <internalNodes>
        0 -1 265 2069090935 1854700733 1111047111 -232636439 -1275197769
        -1109041227 617472725 -486877008</internalNodes>
      <leafValues>
        -1.1224323511123657e-01 1.8305167555809021e-01</leafValues></_>
    <_>
      <internalNodes>
        0 -1 1129 67379296 301278244 638414672 611942688 1685426704
        -1903441153 -1855705019 327156037</internalNodes>
      <leafValues>
        -3.6710345745086670e-01 5.2424643188714981e-02</leafValues></_>
    <_>
      <internalNodes>
        0 -1 781 -845681792 2133605828 -1937879653 1758878576 1882598592
        1551387214 -5490735 -1998311810</internalNodes>
      <leafValues>
        -1.6518652439117432e-01 1.1669898778200150e-01</leafValues></_>
    <_>
      <internalNodes>
        0 -1 292 216542112 -1924645590 -119968662 -1465666720 1564093537
        -248675534 614347537 185865730</internalNodes>
      <leafValues>
        -3.4393399953842163e-01 5.5334631353616714e-02</leafValues></_>
    <_>
      <internalNodes>
        0 -1 539 378244748 -1936953496 719828362 482618581 1165313651
        -1102048506 886310157 1246100528</internalNodes>
      <leafValues>
        -2.4827460944652557e-01 7.9646930098533630e-02</leafValues></_>
    <_>
      <internalNodes>
        0 -1 1556 -922757481 1375686006 515731428 2042817279 -6322292
        1474297719 -1216358466 -36193445</internalNodes>
      <leafValues>
        -7.4475809931755066e-02 2.7817705273628235e-01</leafValues></_>
    <_>
      <internalNodes>
        0 -1 1429 -378303527 1023868603 -308548545 522276796 -1452012323
        1609930749 -1162156434 -55612448</internalNodes>
      <leafValues>
        -1.1741898208856583e-01 1.6780135035514832e-01</leafValues></_>
    <_>
      <internalNodes>
        0 -1 353 285364218 378006882 -45729815 1148747606 -1386379521
        533020752 1638122515 -465572035</internalNodes>
      <leafValues>
        -1.5620130300521851e-01 1.2750525772571564e-01</leafValues></_>
    <_>
      <internalNodes>
        0 -1 1125 641604960 142416276 -770644214 -1398785776 674504006
        1414615678 211952448 2362052</internalNodes>
      <leafValues>
        -4.6950215101242065e-01 4.0989227592945099e-02</leafValues></_>
    <_>
      <internalNodes>
        0 -1 591 1606165782 -1578922595 -145920238 -1935414490 664150713
        73542222 1335782953 -776581312</internalNodes>
      <leafValues>
        -2.0002403855323792e-01 9.6876963973045349e-02</leafValues></_>
    <_>
      <internalNodes>
        0 -1 151 -846655553 -751980873 1565039535 1072626699 -570688395
        -296276116 -142784873 1979114495</internalNodes>
      <leafValues>
        -9.9435925483703613e-02 2.0365822315216064e-01</leafValues></_>
    <_>
      <internalNodes>
        0 -1 535 1813268756 241609696 -423396310 78155648 17977975
        -2139606259 1041782064 10670300</internalNodes>
      <leafValues>
        -3.7063509225845337e-01 5.8082938194274902e-02</leafValues></_>
    <_>
      <internalNodes>
        0 -1 155 1987071108 1576730020 1207696410 1058633516 -998441928
        1050607550 123514170 775822378</internalNodes>
      <leafValues>
        -1.6773419082164764e-01 1.2171176075935364e-01</leafValues></_>
    <_>
      <internalNodes>
        0 -1 1461 -192554773 -106861180 -1412010635 2045197881
        1057189358 -142774450 1643493035 1523625791</internalNodes>
      <leafValues>
        -9.9001072347164154e-02 2.0534561574459076e-01</leafValues></_>
    <_>
      <internalNodes>
        0 -1 1086 236072496 -2133703846 -216043476 -2046860640
        1722553465 1154776252 -1258484380 1757482800</internalNodes>
      <leafValues>
        -3.0642452836036682e-01 6.5810322761535645e-02</leafValues></_>
    <_>
      <internalNodes>
        0 -1 274 203423744 14997160 -378117118 539520878 888492352
        1081342952 978469888 2631461</internalNodes>
      <leafValues>
        -7.5858086347579956e-01 2.4299135431647301e-02</leafValues></_>
    <_>
      <internalNodes>
        0 -1 138 558163472 -460347050 -1426971368 1791940331 1920162532
        -957724604 413402361 40190381</internalNodes>
      <leafValues>
        -2.2449386119842529e-01 8.5670888423919678e-02</leafValues></_>
    <_>
      <internalNodes>
        0 -1 1555 612386048 -1329184038 -736417404 -1431918664
        1839682112 922578625 32337444 310128484</internalNodes>
      <leafValues>
        -3.5570481419563293e-01 5.3402390331029892e-02</leafValues></_>
    <_>
      <internalNodes>
        0 -1 1480 2057365316 -615232322 -112304528 -767394380 2113822464
        2043293918 -254293392 821752326</internalNodes>
      <leafValues>
        -1.8332409858703613e-01 1.0356962680816650e-01</leafValues></_>
    <_>
      <internalNodes>
        0 -1 1417 1638196320 674260947 1255088820 538996709 553532294
        -1330788048 -891505000 188137282</internalNodes>
      <leafValues>
        -2.0115302503108978e-01 9.5157913863658905e-02</leafValues></_>
    <_>
      <internalNodes>
        0 -1 672 -961015256 -1976794676 -620987380 -641826846
        -1648824075 146487786 -414047120 489837986</internalNodes>
      <leafValues>
        -1.9876150786876678e-01 9.6757628023624420e-02</leafValues></_>
    <_>
      <internalNodes>
        0 -1 495 -2046418374 380584834 -1353010814 671932083 1713087084
        810665298 1050441592 386094460</internalNodes>
      <leafValues>
        -2.2026933729648590e-01 8.9197687804698944e-02</leafValues></_>
    <_>
      <internalNodes>
        0 -1 281 -2084489071 720845865 -1862453639 1758966379
        -1391571626 1330842717 -50859117 -1371022686</internalNodes>
      <leafValues>
        -1.4849233627319336e-01 1.3654322922229767e-01</leafValues></_>
    <_>
      <internalNodes>
        0 -1 557 2035127190 1507709527 -1275107542 -380536 -805882722
        -1997176833 -598296805 -886347342</internalNodes>
      <leafValues>
        -1.0328751802444458e-01 1.9969142973423004e-01</leafValues></_>
    <_>
      <internalNodes>
        0 -1 1041 -346426259 -50479473 1002253905 -1112434973
        -1480079993 -159498321 -134884165 -825236743</internalNodes>
      <leafValues>
        -8.2652993500232697e-02 2.4513936042785645e-01</leafValues></_>
    <_>
      <internalNodes>
        0 -1 58 -845554260 -1187152926 -4407302 -102043929 -939534456
        2086010862 754220954 787879261</internalNodes>
      <leafValues>
        -1.1565539985895157e-01 1.7110331356525421e-01</leafValues></_>
    <_>
      <internalNodes>
        0 -1 207 -478401668 -1360476992 1557871749 -2007021401
        1483302516 1039137235 -622299530 -1889655723</internalNodes>
      <leafValues>
        -2.2708211839199066e-01 9.1512553393840790e-02</leafValues></_>
    <_>
      <internalNodes>
        0 -1 166 245899536 35941944 -544119980 248646493 -1255051532
        999418813 1192627515 4339952</internalNodes>
      <leafValues>
        -4.0104725956916809e-01 4.9599666148424149e-02</leafValues></_>
    <_>
      <internalNodes>
        0 -1 556 -306524394 -277619336 -54030 -677923442 -352953064
        -1914024657 778896748 -1136707162</internalNodes>
      <leafValues>
        -1.2422373145818710e-01 1.6349498927593231e-01</leafValues></_>
    <_>
      <internalNodes>
        0 -1 388 -1341429066 545300300 283589736 115951073 -1433714188
        -771493772 -424992558 174935521</internalNodes>
      <leafValues>
        -2.2426936030387878e-01 8.8976956903934479e-02</leafValues></_>
    <_>
      <internalNodes>
        0 -1 998 -591416926 -777429299 -1493321422 -1745506337
        -1532525477 566493151 -1675102807 -294410075</internalNodes>
      <leafValues>
        -1.0943289846181870e-01 1.8671652674674988e-01</leafValues></_>
    <_>
      <internalNodes>
        0 -1 386 -170792594 -1676442532 -48284671 -325331543 -868728736
        -251666790 -2002757037 719646530</internalNodes>
      <leafValues>
        -1.6171140968799591e-01 1.2391944974660873e-01</leafValues></_>
    <_>
      <internalNodes>
        0 -1 638 631504133 -138095106 425424797 -1617023370 1563978822
        1004272834 -1191248455 863024507</internalNodes>
      <leafValues>
        -1.3245864212512970e-01 1.5127620100975037e-01</leafValues></_>
    <_>
      <internalNodes>
        0 -1 51 1012431114 725911928 -449106318 1205841268 1050132790
        -620943869 -289063042 -1263163403</internalNodes>
      <leafValues>
        -1.7799171805381775e-01 1.1592565476894379e-01</leafValues></_>
    <_>
      <internalNodes>
        0 -1 1512 90192484 438446266 1791422741 572274282 -431816412
        893950909 1996373504 23728228</internalNodes>
      <leafValues>
        -3.8268208503723145e-01 5.1073502749204636e-02</leafValues></_>
    <_>
      <internalNodes>
        0 -1 1393 -1058016542 1716182709 922692338 720973686 -809523501
        -595185741 -278785094 1637324603</internalNodes>
      <leafValues>
        -1.3412606716156006e-01 1.5044695138931274e-01</leafValues></_></weakClassifiers></stage15>
</opencv_storage>
