<?xml version="1.0"?>
<opencv_storage>
<stage3>
  <maxWeakCount>33</maxWeakCount>
  <stageThreshold>-2.2014567852020264e+00</stageThreshold>
  <weakClassifiers>
    <_>
      <internalNodes>
        0 -1 24 -538968065 -1201238 43000575 2077432275 -54678801
        -814745345 -371459329 -1</internalNodes>
      <leafValues>
        -7.6128697395324707e-01 -4.9819495528936386e-02</leafValues></_>
    <_>
      <internalNodes>
        0 -1 154 1094763230 533345408 918823072 822610080 349423855
        1323113464 -992146197 -848314194</internalNodes>
      <leafValues>
        -4.9359884858131409e-01 9.6565730869770050e-02</leafValues></_>
    <_>
      <internalNodes>
        0 -1 1014 -867389000 486555400 -771742383 -577699840 1279666078
        1342061327 106169502 176363371</internalNodes>
      <leafValues>
        -3.5713019967079163e-01 1.8911491334438324e-01</leafValues></_>
    <_>
      <internalNodes>
        0 -1 239 -582958914 -1079006550 342114353 1431511458 1566362062
        535768645 1508420751 -271065089</internalNodes>
      <leafValues>
        -2.0681037008762360e-01 3.0416640639305115e-01</leafValues></_>
    <_>
      <internalNodes>
        0 -1 93 18397686 901036560 10368062 817544736 1835997789
        2129633980 1068441021 -1474314514</internalNodes>
      <leafValues>
        -2.8114461898803711e-01 1.7350840568542480e-01</leafValues></_>
    <_>
      <internalNodes>
        0 -1 1511 -1107295120 -1013173466 -269700904 -84396036
        -1091813840 -1480967081 -83973200 -1868919120</internalNodes>
      <leafValues>
        -2.4134933948516846e-01 2.0397663116455078e-01</leafValues></_>
    <_>
      <internalNodes>
        0 -1 1348 -54087848 -1281003655 -553849859 -117563784 -730368536
        -1076367420 -1241584428 -17039388</internalNodes>
      <leafValues>
        -1.4627580344676971e-01 2.8900378942489624e-01</leafValues></_>
    <_>
      <internalNodes>
        0 -1 413 2146430398 1571727906 1286738257 -117803248 1549564285
        -1653654243 1434137853 -120619907</internalNodes>
      <leafValues>
        -1.8419565260410309e-01 2.3802137374877930e-01</leafValues></_>
    <_>
      <internalNodes>
        0 -1 1390 -1598645232 -1398622422 -1408254800 -1124953288
        -151570588 451564379 -2073565980 -1283287872</internalNodes>
      <leafValues>
        -2.6861473917961121e-01 1.6744564473628998e-01</leafValues></_>
    <_>
      <internalNodes>
        0 -1 1449 -637215018 -1087194871 730859205 841403826 261823016
        1731441518 769803434 259046738</internalNodes>
      <leafValues>
        -2.3434822261333466e-01 1.8359807133674622e-01</leafValues></_>
    <_>
      <internalNodes>
        0 -1 972 1825104418 84193156 1199056433 -1605125040 236601630
        118437822 311899710 101134439</internalNodes>
      <leafValues>
        -3.2101982831954956e-01 1.2447614222764969e-01</leafValues></_>
    <_>
      <internalNodes>
        0 -1 1234 -425818448 -1645430110 2125461239 -97210976
        -1042453356 -1379475692 -1343609488 -3209679</internalNodes>
      <leafValues>
        -1.9630989432334900e-01 2.1077486872673035e-01</leafValues></_>
    <_>
      <internalNodes>
        0 -1 1582 -1528778952 1805921230 2111186540 -555028628 -97709292
        1761570864 -355965728 -553040</internalNodes>
      <leafValues>
        -2.1541421115398407e-01 1.8707758188247681e-01</leafValues></_>
    <_>
      <internalNodes>
        0 -1 738 1078945530 254672656 1706033440 -670891727 766186928
        214452606 9457099 781545332</internalNodes>
      <leafValues>
        -2.7715247869491577e-01 1.3821204006671906e-01</leafValues></_>
    <_>
      <internalNodes>
        0 -1 1370 -1604306604 -1477678846 -1095918032 1941750906
        -593155040 -478140094 -1093525644 -631047116</internalNodes>
      <leafValues>
        -2.7143573760986328e-01 1.4770004153251648e-01</leafValues></_>
    <_>
      <internalNodes>
        0 -1 1230 -235152754 2098192162 887860208 -546623694 90569451
        -27508918 1169376970 -1898995761</internalNodes>
      <leafValues>
        -1.3957481086254120e-01 2.8418168425559998e-01</leafValues></_>
    <_>
      <internalNodes>
        0 -1 1559 -1425626592 -1385751555 -1663096841 -1158104262
        -38891835 -1094762659 -356536578 -6039910</internalNodes>
      <leafValues>
        -1.5143045783042908e-01 2.5796058773994446e-01</leafValues></_>
    <_>
      <internalNodes>
        0 -1 1478 -419559919 -1145172194 -8503372 -1237667946
        -1267229379 -1119912137 -1275132496 -1077984093</internalNodes>
      <leafValues>
        -1.8455116450786591e-01 2.1378900110721588e-01</leafValues></_>
    <_>
      <internalNodes>
        0 -1 6 1304552141 159438798 510110252 -1145194836 2133684839
        992974799 2112790894 -1478528524</internalNodes>
      <leafValues>
        -2.0192779600620270e-01 1.9119374454021454e-01</leafValues></_>
    <_>
      <internalNodes>
        0 -1 140 1623983864 138208802 1599678126 1467251454 -1171706207
        708584225 989804088 640460464</internalNodes>
      <leafValues>
        -3.3051562309265137e-01 1.1439264565706253e-01</leafValues></_>
    <_>
      <internalNodes>
        0 -1 886 -956371076 -1175788870 1833993008 -1834336880
        1855718598 626383082 182741490 -389974890</internalNodes>
      <leafValues>
        -2.2270517051219940e-01 1.7170691490173340e-01</leafValues></_>
    <_>
      <internalNodes>
        0 -1 309 1477195390 1184928678 1142293010 1357003552 482281966
        1578978524 1879429866 1708217331</internalNodes>
      <leafValues>
        -2.8596201539039612e-01 1.3678465783596039e-01</leafValues></_>
    <_>
      <internalNodes>
        0 -1 1290 -1091524798 -1213568948 -1342401099 -255448686
        -1382663848 -1312494799 1102850240 -1097457580</internalNodes>
      <leafValues>
        -2.2615006566047668e-01 1.6999347507953644e-01</leafValues></_>
    <_>
      <internalNodes>
        0 -1 713 1911221268 231771937 -539509648 1371531614 -492736519
        -1664021264 -210295956 -1473543049</internalNodes>
      <leafValues>
        -1.9121980667114258e-01 2.0279707014560699e-01</leafValues></_>
    <_>
      <internalNodes>
        0 -1 1339 965450362 -619602152 1752661599 -1888334028 802867426
        -1074364553 -1335351621 -604823946</internalNodes>
      <leafValues>
        -1.7988818883895874e-01 2.1301370859146118e-01</leafValues></_>
    <_>
      <internalNodes>
        0 -1 1456 -47020024 259336526 -200924557 619738864 -1243774368
        -751404293 2113462964 -289963712</internalNodes>
      <leafValues>
        -2.2091114521026611e-01 1.7337679862976074e-01</leafValues></_>
    <_>
      <internalNodes>
        0 -1 277 246934884 -1786477686 -669695860 -17992412 351945469
        2061435045 -2070868597 -1580602044</internalNodes>
      <leafValues>
        -2.2913371026515961e-01 1.6533236205577850e-01</leafValues></_>
    <_>
      <internalNodes>
        0 -1 13 1172986078 781026438 416548464 183362336 762870855
        26404864 -929340801 -1378330126</internalNodes>
      <leafValues>
        -3.1075769662857056e-01 1.2596812844276428e-01</leafValues></_>
    <_>
      <internalNodes>
        0 -1 1538 -354136844 1788109316 -942216628 -1329821068
        -101182371 -1289270021 1740689024 -396569232</internalNodes>
      <leafValues>
        -2.6253202557563782e-01 1.4323750138282776e-01</leafValues></_>
    <_>
      <internalNodes>
        0 -1 1042 -1331110214 335785707 -672401353 1922779668 -321685448
        -549951107 -1274333136 -1154250078</internalNodes>
      <leafValues>
        -1.8608295917510986e-01 2.0554451644420624e-01</leafValues></_>
    <_>
      <internalNodes>
        0 -1 1064 1192020400 1052719274 291474417 1858812402 233909408
        1512995722 1072984235 208863147</internalNodes>
      <leafValues>
        -2.3664067685604095e-01 1.5963800251483917e-01</leafValues></_>
    <_>
      <internalNodes>
        0 -1 1250 -1518221268 -1394577782 1683353937 -1231882854
        2144105148 1325312525 -528695824 -365054880</internalNodes>
      <leafValues>
        -2.2665224969387054e-01 1.7334674298763275e-01</leafValues></_>
    <_>
      <internalNodes>
        0 -1 1555 -65549120 1492549320 -1092916289 -1276760200
        -302131368 -1359122739 -1012007692 -606100684</internalNodes>
      <leafValues>
        -1.6106347739696503e-01 2.4307224154472351e-01</leafValues></_></weakClassifiers></stage3>
</opencv_storage>
