<?xml version="1.0"?>
<opencv_storage>
<stage1>
  <maxWeakCount>25</maxWeakCount>
  <stageThreshold>-2.1800494194030762e+00</stageThreshold>
  <weakClassifiers>
    <_>
      <internalNodes>
        0 -1 39 -842012437 -1364218965 1322320025 -290897 1761567231
        -805316673 -37749761 -1</internalNodes>
      <leafValues>
        -8.0065280199050903e-01 -1.8454936146736145e-01</leafValues></_>
    <_>
      <internalNodes>
        0 -1 223 1481312450 118222688 1625432066 2011640610 2136801741
        1506754291 1391661891 2147449855</internalNodes>
      <leafValues>
        -5.8318018913269043e-01 6.3300311565399170e-02</leafValues></_>
    <_>
      <internalNodes>
        0 -1 101 171868202 -1364316401 148117536 -1346688442 73294799
        670040039 -554353245 -1493176457</internalNodes>
      <leafValues>
        -3.8320806622505188e-01 1.7721877992153168e-01</leafValues></_>
    <_>
      <internalNodes>
        0 -1 406 -839936205 779025070 -269018320 -35130462 729110133
        1071642593 -174281 -524293</internalNodes>
      <leafValues>
        -2.2418694198131561e-01 3.0910372734069824e-01</leafValues></_>
    <_>
      <internalNodes>
        0 -1 1204 -1608905040 -1359027102 -21070155 -124117572
        -1614809616 -839362090 -143390924 -1430065488</internalNodes>
      <leafValues>
        -2.5000771880149841e-01 2.5258171558380127e-01</leafValues></_>
    <_>
      <internalNodes>
        0 -1 1578 -340641372 -1427326082 -1236339612 -589365266
        -83993840 1824026997 -90608 -86314128</internalNodes>
      <leafValues>
        -2.7720719575881958e-01 2.1641913056373596e-01</leafValues></_>
    <_>
      <internalNodes>
        0 -1 759 -850411170 -282330878 1142273937 -29938910 1418531202
        1329307463 487919687 724246363</internalNodes>
      <leafValues>
        -2.6259115338325500e-01 2.2045505046844482e-01</leafValues></_>
    <_>
      <internalNodes>
        0 -1 4 212606846 -1082203238 1735914477 -1421905970 1491024854
        2146434719 2147447125 -2179458</internalNodes>
      <leafValues>
        -2.7412751317024231e-01 2.0340751111507416e-01</leafValues></_>
    <_>
      <internalNodes>
        0 -1 1565 -18997985 -840008464 -350261218 -25395250 -553756828
        -1024301071 -5736704 -18808844</internalNodes>
      <leafValues>
        -2.4426642060279846e-01 2.3086710274219513e-01</leafValues></_>
    <_>
      <internalNodes>
        0 -1 1558 -155778012 1694432758 -1091272847 -16974722
        -1057548032 -406927268 -807789008 -1075663820</internalNodes>
      <leafValues>
        -2.7052175998687744e-01 2.0117296278476715e-01</leafValues></_>
    <_>
      <internalNodes>
        0 -1 799 -1376789198 1873689762 1989490673 -1084291582
        1146975230 -1346471961 1144603764 752837494</internalNodes>
      <leafValues>
        -2.6702535152435303e-01 2.0550125837326050e-01</leafValues></_>
    <_>
      <internalNodes>
        0 -1 1529 55969200 867400565 2118906367 -1149797379 1657037560
        -1158422027 1255697344 -1439311</internalNodes>
      <leafValues>
        -3.1668716669082642e-01 1.6120177507400513e-01</leafValues></_>
    <_>
      <internalNodes>
        0 -1 7 -285377043 -1890662514 -1068505550 -1075527874 887977437
        1707572783 1476394593 -319228108</internalNodes>
      <leafValues>
        -2.3538832366466522e-01 2.3130770027637482e-01</leafValues></_>
    <_>
      <internalNodes>
        0 -1 1208 -831839488 656818022 -1108283759 1011689266 -587377698
        1996258166 2111571521 -520752795</internalNodes>
      <leafValues>
        -2.9948398470878601e-01 1.7039799690246582e-01</leafValues></_>
    <_>
      <internalNodes>
        0 -1 1240 -1529213724 -1499472932 719027443 -1108151351
        -514099727 -1225083406 -102491148 -71125088</internalNodes>
      <leafValues>
        -2.3202630877494812e-01 2.1817046403884888e-01</leafValues></_>
    <_>
      <internalNodes>
        0 -1 22 1281075914 749432106 1712726786 -2111592926 1694893901
        1143439346 840201005 910688223</internalNodes>
      <leafValues>
        -3.7762460112571716e-01 1.3495203852653503e-01</leafValues></_>
    <_>
      <internalNodes>
        0 -1 1259 -1397186150 -1120687327 -1258917063 -8509135 724989929
        -1152617617 1051740055 1009331567</internalNodes>
      <leafValues>
        -2.8531405329704285e-01 1.7199662327766418e-01</leafValues></_>
    <_>
      <internalNodes>
        0 -1 867 -1068023808 204381956 -818236928 1827843974 1092232981
        274157338 1526075680 1714634551</internalNodes>
      <leafValues>
        -4.7282382845878601e-01 1.1039260774850845e-01</leafValues></_>
    <_>
      <internalNodes>
        0 -1 676 -176765894 -1985056856 -579889648 -50530512 114710240
        -1988184073 1948276534 -331944474</internalNodes>
      <leafValues>
        -2.6305109262466431e-01 1.9601044058799744e-01</leafValues></_>
    <_>
      <internalNodes>
        0 -1 1015 -337488804 -272979060 -1366559824 -180727031
        -100765280 -1124487042 1559384884 -627380128</internalNodes>
      <leafValues>
        -2.2606633603572845e-01 2.1877810359001160e-01</leafValues></_>
    <_>
      <internalNodes>
        0 -1 208 -1917947868 665511810 1447892464 -247507359 1483490271
        662685143 494214655 -1533411867</internalNodes>
      <leafValues>
        -2.7397507429122925e-01 1.8245773017406464e-01</leafValues></_>
    <_>
      <internalNodes>
        0 -1 1474 -1570110572 -883228727 -140335174 -588466142 527733888
        -324634863 -1073860912 -554242638</internalNodes>
      <leafValues>
        -2.3891435563564301e-01 2.0770384371280670e-01</leafValues></_>
    <_>
      <internalNodes>
        0 -1 1174 -1477571982 -2138521042 1532023741 -63039376
        -1074247961 -1247599652 -1310181900 -1091690096</internalNodes>
      <leafValues>
        -2.5506910681724548e-01 1.9327053427696228e-01</leafValues></_>
    <_>
      <internalNodes>
        0 -1 720 -85013821 -287016978 -1225802207 -102959694 -1635850320
        -322473991 -1228671952 -534542</internalNodes>
      <leafValues>
        -1.5743237733840942e-01 3.1262212991714478e-01</leafValues></_>
    <_>
      <internalNodes>
        0 -1 1352 -696517202 -479526925 2146334870 1895099890
        -1261679368 -117680130 1710553060 -22545675</internalNodes>
      <leafValues>
        -1.9548819959163666e-01 2.5850087404251099e-01</leafValues></_></weakClassifiers></stage1>
</opencv_storage>
