<?xml version="1.0"?>
<opencv_storage>
<stage5>
  <maxWeakCount>38</maxWeakCount>
  <stageThreshold>-2.0506033897399902e+00</stageThreshold>
  <weakClassifiers>
    <_>
      <internalNodes>
        0 -1 44 -540020737 -5264465 2138383291 -21513 -67371009
        -805308425 -8388613 -1</internalNodes>
      <leafValues>
        -7.4706906080245972e-01 -2.6702269911766052e-01</leafValues></_>
    <_>
      <internalNodes>
        0 -1 118 -857944914 640347522 -1361835862 -1091125470 1993135871
        635437053 -1258455153 -1392645641</internalNodes>
      <leafValues>
        -4.7431057691574097e-01 -3.3315867185592651e-02</leafValues></_>
    <_>
      <internalNodes>
        0 -1 8 1152170728 770614794 -671342240 -1359234012 1433876129
        1039659887 1609936108 -1367900314</internalNodes>
      <leafValues>
        -3.0283641815185547e-01 1.3277900218963623e-01</leafValues></_>
    <_>
      <internalNodes>
        0 -1 1520 -1564977308 1862188937 -19206212 720674228 -33743856
        1845391192 -402903292 -20431104</internalNodes>
      <leafValues>
        -3.1396397948265076e-01 1.3333362340927124e-01</leafValues></_>
    <_>
      <internalNodes>
        0 -1 27 97266472 799732468 -916492442 -135121354 2137728886
        801071919 1728017766 -1107476632</internalNodes>
      <leafValues>
        -2.6607352495193481e-01 1.7564369738101959e-01</leafValues></_>
    <_>
      <internalNodes>
        0 -1 427 1178789694 749534760 -281332176 -320072032 1444961661
        368505590 1341605444 747662432</internalNodes>
      <leafValues>
        -3.7780487537384033e-01 1.0768975317478180e-01</leafValues></_>
    <_>
      <internalNodes>
        0 -1 1591 216279136 762477030 -1124123908 -690603172 -272810204
        2113891903 -1243694032 -1264554176</internalNodes>
      <leafValues>
        -3.1845837831497192e-01 1.1826054751873016e-01</leafValues></_>
    <_>
      <internalNodes>
        0 -1 836 -869300938 -1980874878 2112599600 -1108672540 904684661
        135675647 -1527242956 -1528338573</internalNodes>
      <leafValues>
        -2.5659665465354919e-01 1.4912079274654388e-01</leafValues></_>
    <_>
      <internalNodes>
        0 -1 349 608191371 360667629 -275285708 -722547338 1991320573
        114458483 -738823428 -187171373</internalNodes>
      <leafValues>
        -2.0296549797058105e-01 1.8512533605098724e-01</leafValues></_>
    <_>
      <internalNodes>
        0 -1 1237 -1401773696 -1551745176 -67113998 -1092711746
        653089139 -939721869 -227007420 -1411695943</internalNodes>
      <leafValues>
        -2.1826247870922089e-01 1.6983902454376221e-01</leafValues></_>
    <_>
      <internalNodes>
        0 -1 547 1816472236 1455619010 2088375226 -1113575570 1614481285
        2083982620 876429562 -2064296485</internalNodes>
      <leafValues>
        -2.4444304406642914e-01 1.5503920614719391e-01</leafValues></_>
    <_>
      <internalNodes>
        0 -1 1396 -331817408 -1520137234 -302010909 -1695101958
        1425992101 1072591634 -1511031067 -2119268048</internalNodes>
      <leafValues>
        -2.2256205976009369e-01 1.6082750260829926e-01</leafValues></_>
    <_>
      <internalNodes>
        0 -1 418 1074268950 245786882 -1401931678 1348481984 1430735717
        83830526 182588464 779517938</internalNodes>
      <leafValues>
        -4.3958032131195068e-01 8.1718623638153076e-02</leafValues></_>
    <_>
      <internalNodes>
        0 -1 1134 1208854364 1332145584 846833427 -852147871 417085104
        -8699973 1043084778 586528358</internalNodes>
      <leafValues>
        -2.4963629245758057e-01 1.3820371031761169e-01</leafValues></_>
    <_>
      <internalNodes>
        0 -1 1318 715271200 -1593885981 1978632126 -1934165358 620455268
        -538165319 -182122700 -1565124846</internalNodes>
      <leafValues>
        -3.0591821670532227e-01 1.1833285540342331e-01</leafValues></_>
    <_>
      <internalNodes>
        0 -1 1485 -1405868828 -1786914 820951803 -25640970 687806320
        -308830275 1878800054 -354538572</internalNodes>
      <leafValues>
        -2.0574815571308136e-01 1.6952544450759888e-01</leafValues></_>
    <_>
      <internalNodes>
        0 -1 954 1111009724 267239054 -1107303831 -1791247182
        -1365086820 1559035902 914650575 -2076850841</internalNodes>
      <leafValues>
        -2.2181251645088196e-01 1.6161181032657623e-01</leafValues></_>
    <_>
      <internalNodes>
        0 -1 991 -1397187552 -309414934 -201333863 -84014706 1929306469
        -1216416819 -1073793195 -1142027083</internalNodes>
      <leafValues>
        -2.0706132054328918e-01 1.7320084571838379e-01</leafValues></_>
    <_>
      <internalNodes>
        0 -1 916 1829541168 -1123033290 -306353520 -326205534 626537965
        1807736692 1828091866 -1998476266</internalNodes>
      <leafValues>
        -2.2373425960540771e-01 1.5804417431354523e-01</leafValues></_>
    <_>
      <internalNodes>
        0 -1 703 1519177494 -1360239057 1874487096 688246752 348939669
        268302902 918824820 149765603</internalNodes>
      <leafValues>
        -2.8098165988922119e-01 1.2718676030635834e-01</leafValues></_>
    <_>
      <internalNodes>
        0 -1 1125 -153158279 989822934 -4980786 -1113227568 2092193228
        -50735105 -983104 -325586962</internalNodes>
      <leafValues>
        -1.4086996018886566e-01 2.4261282384395599e-01</leafValues></_>
    <_>
      <internalNodes>
        0 -1 11 609101088 747433892 1853301344 73819810 2146460948
        811562059 1591562548 609550140</internalNodes>
      <leafValues>
        -5.8906042575836182e-01 5.8631524443626404e-02</leafValues></_>
    <_>
      <internalNodes>
        0 -1 1375 1152106300 1606476768 -1426102684 257309392 1560186029
        2132754127 1725110696 -1965671674</internalNodes>
      <leafValues>
        -2.2235967218875885e-01 1.5304738283157349e-01</leafValues></_>
    <_>
      <internalNodes>
        0 -1 390 1240204516 680271614 1071954374 -1162079016 -1895959555
        1023177183 515699408 687605864</internalNodes>
      <leafValues>
        -3.2745376229286194e-01 1.0229797661304474e-01</leafValues></_>
    <_>
      <internalNodes>
        0 -1 1399 1814176544 599001006 -306377726 578036396 90652965
        334887415 -1846270720 76902694</internalNodes>
      <leafValues>
        -5.1478987932205200e-01 6.4468100666999817e-02</leafValues></_>
    <_>
      <internalNodes>
        0 -1 1132 637783000 447470526 -1711464842 -1644609600 416853322
        954661238 1826962680 913663842</internalNodes>
      <leafValues>
        -2.3811528086662292e-01 1.4488942921161652e-01</leafValues></_>
    <_>
      <internalNodes>
        0 -1 1450 -453363987 -420975710 -1110509968 1692023713
        -1699160291 -1397773484 1062730852 -123143184</internalNodes>
      <leafValues>
        -2.1403074264526367e-01 1.6934816539287567e-01</leafValues></_>
    <_>
      <internalNodes>
        0 -1 110 373050504 214460652 1472674786 317468400 631634802
        276811124 1366914630 469240094</internalNodes>
      <leafValues>
        -3.6109733581542969e-01 9.7736090421676636e-02</leafValues></_>
    <_>
      <internalNodes>
        0 -1 751 1257804112 481210348 1749188496 -106877279 896810902
        746018814 1462523384 -2053771677</internalNodes>
      <leafValues>
        -2.0847874879837036e-01 1.6302978992462158e-01</leafValues></_>
    <_>
      <internalNodes>
        0 -1 1120 -152285224 -1896711352 -1946347803 -1774547436
        -605784152 -168224031 2063497568 -137996108</internalNodes>
      <leafValues>
        -2.1022090315818787e-01 1.6825625300407410e-01</leafValues></_>
    <_>
      <internalNodes>
        0 -1 49 6293540 37768838 1634247242 178655195 1425616718
        213871766 2018710108 750087406</internalNodes>
      <leafValues>
        -4.7887262701988220e-01 7.3231339454650879e-02</leafValues></_>
    <_>
      <internalNodes>
        0 -1 1017 -1371767020 1025439192 -1476423811 -1345693900
        1447456469 -1328145970 1606297077 -1971769568</internalNodes>
      <leafValues>
        -2.9592427611351013e-01 1.1472370475530624e-01</leafValues></_>
    <_>
      <internalNodes>
        0 -1 1162 -201404699 -824492167 1056619887 -1675465042
        -1896155780 795767735 2032971904 -1565065480</internalNodes>
      <leafValues>
        -1.8042406439781189e-01 1.9779662787914276e-01</leafValues></_>
    <_>
      <internalNodes>
        0 -1 984 -520161314 -1859154138 -1111933034 -1077549136
        -1000360137 -1494821425 -1405656900 -453825321</internalNodes>
      <leafValues>
        -1.6781677305698395e-01 2.1996730566024780e-01</leafValues></_>
    <_>
      <internalNodes>
        0 -1 1302 -328325088 -287647125 -87332 -636290660 -25304268
        -211867707 -1242876240 -893496876</internalNodes>
      <leafValues>
        -2.1657624840736389e-01 1.6496835649013519e-01</leafValues></_>
    <_>
      <internalNodes>
        0 -1 132 -495630868 -1123129436 -1166989776 -637534619 -50549727
        1978949605 -1099988994 569617783</internalNodes>
      <leafValues>
        -1.9525161385536194e-01 1.8879845738410950e-01</leafValues></_>
    <_>
      <internalNodes>
        0 -1 697 1323257380 -1640159374 -140656870 -1729462348 389621679
        -201610444 -1353642561 1169661047</internalNodes>
      <leafValues>
        -2.2229288518428802e-01 1.6536581516265869e-01</leafValues></_>
    <_>
      <internalNodes>
        0 -1 467 208405618 1852829222 616375056 1148140514 1279594050
        -1403429019 1037990963 1567053426</internalNodes>
      <leafValues>
        -3.1958633661270142e-01 1.1034921556711197e-01</leafValues></_></weakClassifiers></stage5>
</opencv_storage>
