<?xml version="1.0"?>
<opencv_storage>
<stage7>
  <maxWeakCount>38</maxWeakCount>
  <stageThreshold>-1.9494854211807251e+00</stageThreshold>
  <weakClassifiers>
    <_>
      <internalNodes>
        0 -1 213 -1049601 -34619474 1507791802 -539024401 2113929214
        -981501185 -150995473 -572002561</internalNodes>
      <leafValues>
        -7.5228226184844971e-01 -4.2766296863555908e-01</leafValues></_>
    <_>
      <internalNodes>
        0 -1 23 1532624639 -559108758 1861886446 -1099074 -177217849
        -303038473 -37880066 -302518273</internalNodes>
      <leafValues>
        -3.0128240585327148e-01 1.2225203216075897e-01</leafValues></_>
    <_>
      <internalNodes>
        0 -1 683 17566884 340665004 -135782368 694431776 259736499
        1551239038 1029908075 606221862</internalNodes>
      <leafValues>
        -3.6418619751930237e-01 9.1027304530143738e-02</leafValues></_>
    <_>
      <internalNodes>
        0 -1 1525 -1359434736 -86982980 -824197466 -457266756 -103474624
        1358815094 -1434583548 -285692416</internalNodes>
      <leafValues>
        -2.4193522334098816e-01 1.4118504524230957e-01</leafValues></_>
    <_>
      <internalNodes>
        0 -1 860 -1459838672 -327487497 -738222316 -4938360 651609908
        350207695 -16910732 -83970004</internalNodes>
      <leafValues>
        -1.7422813177108765e-01 1.9583064317703247e-01</leafValues></_>
    <_>
      <internalNodes>
        0 -1 1356 70003272 -294887570 -1699759174 -1431650736 -73963948
        393777095 -1141071500 -1432861264</internalNodes>
      <leafValues>
        -2.7916762232780457e-01 1.3359253108501434e-01</leafValues></_>
    <_>
      <internalNodes>
        0 -1 1147 612423644 260398753 803547756 119617456 796153792
        -25927814 1048330217 676670518</internalNodes>
      <leafValues>
        -2.7030411362648010e-01 1.1658916622400284e-01</leafValues></_>
    <_>
      <internalNodes>
        0 -1 1 217328488 104523758 -324028640 787722182 972502823
        1207434015 1920939285 -1277379096</internalNodes>
      <leafValues>
        -2.8928184509277344e-01 1.1567173153162003e-01</leafValues></_>
    <_>
      <internalNodes>
        0 -1 507 1296485052 418210986 2147313186 -2118582298 919639913
        1683540570 1442673342 -1531482385</internalNodes>
      <leafValues>
        -2.1133096516132355e-01 1.4713318645954132e-01</leafValues></_>
    <_>
      <internalNodes>
        0 -1 1314 -1527501808 -1438092364 -236098974 -54591726
        -1246535115 1861547897 -1208256860 -521949920</internalNodes>
      <leafValues>
        -2.4827302992343903e-01 1.2612822651863098e-01</leafValues></_>
    <_>
      <internalNodes>
        0 -1 1394 -1330997664 -1062716029 -812401277 -1632583766
        -1880965626 877566861 2046472876 -1409416263</internalNodes>
      <leafValues>
        -1.8401674926280975e-01 1.7455902695655823e-01</leafValues></_>
    <_>
      <internalNodes>
        0 -1 994 -522179292 -285430302 1597931450 -1118558 -950701596
        -171053091 -1749108988 -106178625</internalNodes>
      <leafValues>
        -1.6826382279396057e-01 1.9378955662250519e-01</leafValues></_>
    <_>
      <internalNodes>
        0 -1 558 -864236540 433486829 -1620820114 -1375745694 1080836598
        1421304088 -1199364386 -1932835949</internalNodes>
      <leafValues>
        -1.9297458231449127e-01 1.7069815099239349e-01</leafValues></_>
    <_>
      <internalNodes>
        0 -1 1111 -331417044 -1460739138 -1479019872 -424785388
        -2017651996 -860205703 -285248608 -318780020</internalNodes>
      <leafValues>
        -1.9060255587100983e-01 1.7112624645233154e-01</leafValues></_>
    <_>
      <internalNodes>
        0 -1 241 1143483526 1047277412 -26860766 -1561968958 1702305587
        1425480670 1425287700 68251158</internalNodes>
      <leafValues>
        -4.2015188932418823e-01 8.1145010888576508e-02</leafValues></_>
    <_>
      <internalNodes>
        0 -1 3 746861574 887799754 -414239340 -1494565128 1736402796
        2135748654 1342075814 -2039727566</internalNodes>
      <leafValues>
        -3.5543307662010193e-01 8.7854482233524323e-02</leafValues></_>
    <_>
      <internalNodes>
        0 -1 439 426525918 -1432319326 1676697907 1092301562 1602802043
        -1392833549 1591457018 741817839</internalNodes>
      <leafValues>
        -2.4638733267784119e-01 1.3123336434364319e-01</leafValues></_>
    <_>
      <internalNodes>
        0 -1 1494 1717044836 -222380044 -857961254 1088599030 -539225276
        1987377811 -1208429864 -1162583024</internalNodes>
      <leafValues>
        -2.3937992751598358e-01 1.2978728115558624e-01</leafValues></_>
    <_>
      <internalNodes>
        0 -1 314 -1647549272 149749326 -411619288 -34952278 1687516644
        2037377384 -154704964 -1269131402</internalNodes>
      <leafValues>
        -2.4966253340244293e-01 1.2537398934364319e-01</leafValues></_>
    <_>
      <internalNodes>
        0 -1 12 -1292007196 988631018 -1227423038 -152589380 1937538925
        888139510 -1216643796 -1395278158</internalNodes>
      <leafValues>
        -2.0176400244235992e-01 1.5195776522159576e-01</leafValues></_>
    <_>
      <internalNodes>
        0 -1 1400 -1651196 -546247956 -1694802324 -759370138 -199018
        1475444479 -54610254 -1237832896</internalNodes>
      <leafValues>
        -1.7157681286334991e-01 1.8645578622817993e-01</leafValues></_>
    <_>
      <internalNodes>
        0 -1 1131 1251524976 104003450 -285286790 -920486221 1039152852
        372654069 -1196145116 -185376974</internalNodes>
      <leafValues>
        -2.5753176212310791e-01 1.2843187153339386e-01</leafValues></_>
    <_>
      <internalNodes>
        0 -1 1052 1227092916 -1129452184 -538296382 97595234 517930540
        337607294 -218882049 -1030717639</internalNodes>
      <leafValues>
        -1.8698146939277649e-01 1.6075299680233002e-01</leafValues></_>
    <_>
      <internalNodes>
        0 -1 1466 6325248 68951492 -1359299182 1689403376 -960144332
        834427254 -201446108 1692813200</internalNodes>
      <leafValues>
        -3.9606171846389771e-01 7.7471315860748291e-02</leafValues></_>
    <_>
      <internalNodes>
        0 -1 868 -1146823596 2128916386 1878670250 -26329224 1677117500
        1442297087 -76041244 -1074534982</internalNodes>
      <leafValues>
        -1.5799099206924438e-01 2.0572011172771454e-01</leafValues></_>
    <_>
      <internalNodes>
        0 -1 872 610406160 236908577 -1074008072 -151569473 1551711100
        -699073513 -1337990000 778826954</internalNodes>
      <leafValues>
        -2.3949041962623596e-01 1.3114973902702332e-01</leafValues></_>
    <_>
      <internalNodes>
        0 -1 362 1549186806 1557061086 -571460690 1392032250 -296144983
        240799124 -11459544 -1476922210</internalNodes>
      <leafValues>
        -1.9187708199024200e-01 1.6265286505222321e-01</leafValues></_>
    <_>
      <internalNodes>
        0 -1 57 1307189860 -1374884434 -1907361616 -1141162325 360165473
        1705892183 -537044188 -1380897668</internalNodes>
      <leafValues>
        -2.5958386063575745e-01 1.2037920206785202e-01</leafValues></_>
    <_>
      <internalNodes>
        0 -1 988 -524771280 -2079511170 -807567853 -1947557749
        -973096195 1006194552 243471672 -1514663821</internalNodes>
      <leafValues>
        -2.1921488642692566e-01 1.4422762393951416e-01</leafValues></_>
    <_>
      <internalNodes>
        0 -1 1502 -27474078 -668287192 -595665166 -1270941988 -1089548
        1937686393 -67136606 -310690244</internalNodes>
      <leafValues>
        -1.5441717207431793e-01 1.9882032275199890e-01</leafValues></_>
    <_>
      <internalNodes>
        0 -1 910 684459040 -861116626 1323249058 -1574257996 1926772564
        1717270574 -227785872 557064032</internalNodes>
      <leafValues>
        -4.8107993602752686e-01 6.4039923250675201e-02</leafValues></_>
    <_>
      <internalNodes>
        0 -1 1565 -1092184660 233597157 -106990826 -1435701736
        -805504191 1120857015 -273680420 -1293893638</internalNodes>
      <leafValues>
        -1.8858195841312408e-01 1.6237553954124451e-01</leafValues></_>
    <_>
      <internalNodes>
        0 -1 712 -1096012252 -1507923538 -75957730 -35218806 -1441428551
        1986976621 -1226959360 -1577386064</internalNodes>
      <leafValues>
        -2.0681366324424744e-01 1.4676372706890106e-01</leafValues></_>
    <_>
      <internalNodes>
        0 -1 879 -1274444244 473428159 -952016590 -1911604062 1056076222
        -1402591152 -215540214 -1599390233</internalNodes>
      <leafValues>
        -2.1276152133941650e-01 1.5086351335048676e-01</leafValues></_>
    <_>
      <internalNodes>
        0 -1 1207 -873800412 1998336041 -1349591206 -144506984
        -739136784 718045904 2092067920 -1561060945</internalNodes>
      <leafValues>
        -1.8864186108112335e-01 1.6820020973682404e-01</leafValues></_>
    <_>
      <internalNodes>
        0 -1 1561 583796992 780058165 1268461190 573633548 888410636
        1070498176 794575920 5256496</internalNodes>
      <leafValues>
        -6.5965902805328369e-01 4.6765953302383423e-02</leafValues></_>
    <_>
      <internalNodes>
        0 -1 290 1106009900 1856876789 -37899678 -156339666 -231976
        830303975 439777136 555530066</internalNodes>
      <leafValues>
        -2.6991978287696838e-01 1.1092212796211243e-01</leafValues></_>
    <_>
      <internalNodes>
        0 -1 556 1319634948 -353330948 -217857 -1279846442 -236580812
        -1402320721 -1553168087 712651186</internalNodes>
      <leafValues>
        -2.3432444036006927e-01 1.3074015080928802e-01</leafValues></_></weakClassifiers></stage7>
</opencv_storage>
