<?xml version="1.0"?>
<opencv_storage>
<stage12>
  <maxWeakCount>59</maxWeakCount>
  <stageThreshold>-1.8450543880462646e+00</stageThreshold>
  <weakClassifiers>
    <_>
      <internalNodes>
        0 -1 589 -1048581 -2637909 1929335933 -1596045 -317202981
        -94655673 -545654789 -67108897</internalNodes>
      <leafValues>
        -7.3462820053100586e-01 -3.6802414059638977e-01</leafValues></_>
    <_>
      <internalNodes>
        0 -1 297 1230488682 -1349958774 -857468880 -35051674 821881583
        -1879444007 1238285817 1145038311</internalNodes>
      <leafValues>
        -3.4214648604393005e-01 -3.8568526506423950e-02</leafValues></_>
    <_>
      <internalNodes>
        0 -1 1406 -423581544 875824607 -1359034014 891317840 1610550796
        1073740651 -193712406 1146584162</internalNodes>
      <leafValues>
        -2.1080462634563446e-01 1.1254506558179855e-01</leafValues></_>
    <_>
      <internalNodes>
        0 -1 395 778044840 -1929875062 -839706400 110635744 594817580
        -777114753 2013016240 4212948</internalNodes>
      <leafValues>
        -4.3602520227432251e-01 4.8197310417890549e-02</leafValues></_>
    <_>
      <internalNodes>
        0 -1 395 -574696363 1999613993 502737519 -78660049 -58934588
        795197438 -1401449636 -72371429</internalNodes>
      <leafValues>
        -3.6583296954631805e-02 3.6723443865776062e-01</leafValues></_>
    <_>
      <internalNodes>
        0 -1 0 225715372 110718657 -1143304702 197568490 1968551190
        1528430229 2147442528 664611870</internalNodes>
      <leafValues>
        -2.9758748412132263e-01 5.4891433566808701e-02</leafValues></_>
    <_>
      <internalNodes>
        0 -1 124 50348132 -1367194482 578566860 174240610 938944182
        879034532 1812270520 22890026</internalNodes>
      <leafValues>
        -3.1245389580726624e-01 9.9663712084293365e-02</leafValues></_>
    <_>
      <internalNodes>
        0 -1 170 78956192 -1670844968 1089478666 -1863017244 2029634903
        -1359135886 -731481322 -2078980684</internalNodes>
      <leafValues>
        -2.5146341323852539e-01 9.1098122298717499e-02</leafValues></_>
    <_>
      <internalNodes>
        0 -1 1135 606873648 713621248 -1931737726 784997282 1631340356
        774361982 260863280 545533204</internalNodes>
      <leafValues>
        -5.4419285058975220e-01 3.2834507524967194e-02</leafValues></_>
    <_>
      <internalNodes>
        0 -1 881 1789452697 -1112925322 -1763827871 -12740799 341122348
        1539903629 1061959253 1161928309</internalNodes>
      <leafValues>
        -1.6656236350536346e-01 1.3006132841110229e-01</leafValues></_>
    <_>
      <internalNodes>
        0 -1 14 212634355 -1401975168 -661367567 1858667363 452350181
        100611492 -575024386 631814996</internalNodes>
      <leafValues>
        -2.2272743284702301e-01 1.0033390671014786e-01</leafValues></_>
    <_>
      <internalNodes>
        0 -1 633 646450692 78261738 -1858192842 -1070711036 382628876
        1985670903 769661264 608181520</internalNodes>
      <leafValues>
        -5.0356954336166382e-01 4.2613305151462555e-02</leafValues></_>
    <_>
      <internalNodes>
        0 -1 275 -9484376 1030024398 -375103056 2112729999 1048573303
        1977090044 947252447 -1462151213</internalNodes>
      <leafValues>
        -1.3594727218151093e-01 1.6730591654777527e-01</leafValues></_>
    <_>
      <internalNodes>
        0 -1 568 1768204056 172895880 -23257072 -1530223006 207735120
        -2000033109 2089833529 1192639744</internalNodes>
      <leafValues>
        -2.6563498377799988e-01 7.7865347266197205e-02</leafValues></_>
    <_>
      <internalNodes>
        0 -1 524 666633248 148114680 1996450040 -1025361094 -1310891744
        1844362235 -1539547056 67420184</internalNodes>
      <leafValues>
        -3.9132332801818848e-01 4.9344375729560852e-02</leafValues></_>
    <_>
      <internalNodes>
        0 -1 906 1830703330 141049548 -1940432205 2066449168 1742500742
        1569994395 217216986 1706513254</internalNodes>
      <leafValues>
        -1.9634632766246796e-01 1.0318580269813538e-01</leafValues></_>
    <_>
      <internalNodes>
        0 -1 1260 -660165142 -1145541100 -26236124 -1636906816
        -1629605524 1207793631 -2063750220 -1090611242</internalNodes>
      <leafValues>
        -1.3701730966567993e-01 1.5169678628444672e-01</leafValues></_>
    <_>
      <internalNodes>
        0 -1 177 1892714156 1023909506 1037884472 -1632275526 1877507316
        910272985 1863996017 779245499</internalNodes>
      <leafValues>
        -1.7139995098114014e-01 1.2575584650039673e-01</leafValues></_>
    <_>
      <internalNodes>
        0 -1 720 36440064 719615662 585901104 739516768 324166416
        1154998635 918564896 1075078160</internalNodes>
      <leafValues>
        -6.4958816766738892e-01 3.1283188611268997e-02</leafValues></_>
    <_>
      <internalNodes>
        0 -1 552 1755852048 -1388414210 -1286223620 -1773484926
        1846384068 -1376429592 -1373737028 144473200</internalNodes>
      <leafValues>
        -2.5753116607666016e-01 7.8956842422485352e-02</leafValues></_>
    <_>
      <internalNodes>
        0 -1 1530 -160750012 -2384400 -329527330 -298425450 -9467128
        -278168913 -1076716160 -109285202</internalNodes>
      <leafValues>
        -1.4341042935848236e-01 1.4356115460395813e-01</leafValues></_>
    <_>
      <internalNodes>
        0 -1 249 -1722417801 -1142556990 585840495 -340064009 -587542081
        -570466697 1851062270 -6815753</internalNodes>
      <leafValues>
        -8.4805466234683990e-02 2.4572183191776276e-01</leafValues></_>
    <_>
      <internalNodes>
        0 -1 1112 -1029534196 1638565226 1877745302 1612958402 82409269
        -525542850 852828276 2446886</internalNodes>
      <leafValues>
        -3.0035445094108582e-01 7.1267008781433105e-02</leafValues></_>
    <_>
      <internalNodes>
        0 -1 759 139202572 138672256 1181788416 504570784 348721414
        762891078 1033179508 135862874</internalNodes>
      <leafValues>
        -3.9198288321495056e-01 5.3734552115201950e-02</leafValues></_>
    <_>
      <internalNodes>
        0 -1 1381 1485562014 -1101397604 1657694057 24590002 -734620740
        -635383008 951864232 1195943462</internalNodes>
      <leafValues>
        -1.6417773067951202e-01 1.3205185532569885e-01</leafValues></_>
    <_>
      <internalNodes>
        0 -1 472 607126532 212607880 805076520 72123488 205268304
        356952042 2105811252 6312224</internalNodes>
      <leafValues>
        -7.3421561717987061e-01 2.8337262570858002e-02</leafValues></_>
    <_>
      <internalNodes>
        0 -1 1419 1565514207 -97288808 -1099764763 1608904471 2029804459
        -165900 1383524543 -9458277</internalNodes>
      <leafValues>
        -7.4702136218547821e-02 2.9874977469444275e-01</leafValues></_>
    <_>
      <internalNodes>
        0 -1 1240 -453361664 616328040 1794775280 -1934558687 1853506865
        922418619 1753102260 742699936</internalNodes>
      <leafValues>
        -3.0945548415184021e-01 7.0284098386764526e-02</leafValues></_>
    <_>
      <internalNodes>
        0 -1 355 -159523363 -545305349 -201426514 -8409334 -1141965933
        -25296897 -1744833046 -1141138557</internalNodes>
      <leafValues>
        -6.3932344317436218e-02 3.4373912215232849e-01</leafValues></_>
    <_>
      <internalNodes>
        0 -1 1319 143132162 575703690 -1197523838 143304196 1141254758
        1739968613 78513184 69686084</internalNodes>
      <leafValues>
        -4.7946172952651978e-01 4.6422157436609268e-02</leafValues></_>
    <_>
      <internalNodes>
        0 -1 1140 -1552244904 1579447075 -1126213984 -1174771886
        -212331332 668218190 -14059336 1660151414</internalNodes>
      <leafValues>
        -1.5870070457458496e-01 1.3350430130958557e-01</leafValues></_>
    <_>
      <internalNodes>
        0 -1 432 102894124 741263726 -1519386112 685964408 2110802689
        207241844 150750672 620385824</internalNodes>
      <leafValues>
        -4.8409363627433777e-01 4.5762177556753159e-02</leafValues></_>
    <_>
      <internalNodes>
        0 -1 409 1508877785 -152257872 1014973745 1448047379 -997920897
        -289473098 1053615607 1301626534</internalNodes>
      <leafValues>
        -1.1981938034296036e-01 1.8096497654914856e-01</leafValues></_>
    <_>
      <internalNodes>
        0 -1 43 176301662 -420648982 796571817 -2106190761 -1317913266
        -1488983899 -262412497 -986387671</internalNodes>
      <leafValues>
        -2.0723789930343628e-01 1.0833376646041870e-01</leafValues></_>
    <_>
      <internalNodes>
        0 -1 1080 640164388 157695934 -583584112 304302674 106193508
        -1783580468 499205492 7415393</internalNodes>
      <leafValues>
        -3.9951562881469727e-01 5.5463474243879318e-02</leafValues></_>
    <_>
      <internalNodes>
        0 -1 831 -653807631 1011731954 -1957611681 1609880562 1452125128
        -1459746866 -579471714 -1941973038</internalNodes>
      <leafValues>
        -1.0726913809776306e-01 2.1447783708572388e-01</leafValues></_>
    <_>
      <internalNodes>
        0 -1 1280 -956630776 1152941653 -1816230368 673500396 1559759984
        502618810 342115588 811615776</internalNodes>
      <leafValues>
        -3.7908929586410522e-01 5.8338601142168045e-02</leafValues></_>
    <_>
      <internalNodes>
        0 -1 1174 77991984 42118708 -1689235348 -1003353006 838362149
        1707305000 1006400788 207765776</internalNodes>
      <leafValues>
        -4.4929820299148560e-01 4.7793738543987274e-02</leafValues></_>
    <_>
      <internalNodes>
        0 -1 405 1731452252 1404006798 -1592201694 1028591269 1052453253
        1840413619 1936358417 348922995</internalNodes>
      <leafValues>
        -1.5915778279304504e-01 1.3712872564792633e-01</leafValues></_>
    <_>
      <internalNodes>
        0 -1 1075 -471797852 -1111823387 -69455885 -1663148398
        -705490599 1593395053 -942085200 -1427186316</internalNodes>
      <leafValues>
        -1.5478087961673737e-01 1.4829519391059875e-01</leafValues></_>
    <_>
      <internalNodes>
        0 -1 1065 552347648 606644640 -1605356748 485928608 1872500234
        1601182218 -1458297263 72622894</internalNodes>
      <leafValues>
        -4.0566080808639526e-01 5.3584799170494080e-02</leafValues></_>
    <_>
      <internalNodes>
        0 -1 545 -254462288 -1134217086 -1757514072 736916424 97854559
        -1671652794 -1002024087 1281750522</internalNodes>
      <leafValues>
        -1.9537864625453949e-01 1.0911867767572403e-01</leafValues></_>
    <_>
      <internalNodes>
        0 -1 178 6300804 -2131719287 1758742568 235544550 794216052
        1130346008 1685169734 135557248</internalNodes>
      <leafValues>
        -4.6036458015441895e-01 4.6612787991762161e-02</leafValues></_>
    <_>
      <internalNodes>
        0 -1 376 1772066453 133877366 1174314997 -637649424 -1140967436
        -1954775045 -613468458 -1042569813</internalNodes>
      <leafValues>
        -1.2523768842220306e-01 1.7618082463741302e-01</leafValues></_>
    <_>
      <internalNodes>
        0 -1 480 -139339049 1030483197 -587210060 -577504261 -1258891283
        -278763657 1853765327 1341486757</internalNodes>
      <leafValues>
        -9.0844377875328064e-02 2.4207195639610291e-01</leafValues></_>
    <_>
      <internalNodes>
        0 -1 60 20595980 776416672 -1958727503 753658394 1847514884
        1994765150 1029727336 808615764</internalNodes>
      <leafValues>
        -3.0276536941528320e-01 7.4691362679004669e-02</leafValues></_>
    <_>
      <internalNodes>
        0 -1 30 24389900 74118030 1257361922 774700909 1561966180
        1730493045 1450464305 548689250</internalNodes>
      <leafValues>
        -4.7262874245643616e-01 4.6308368444442749e-02</leafValues></_>
    <_>
      <internalNodes>
        0 -1 1180 -519463618 2036416297 -1000444511 1694198194
        -1889278008 2083323836 653588412 -1098027078</internalNodes>
      <leafValues>
        -1.3710683584213257e-01 1.6916681826114655e-01</leafValues></_>
    <_>
      <internalNodes>
        0 -1 1557 242224460 682512768 -828379936 -1502736478 1577917488
        864739626 -590081535 615540228</internalNodes>
      <leafValues>
        -4.3159762024879456e-01 5.0696071237325668e-02</leafValues></_>
    <_>
      <internalNodes>
        0 -1 157 289152228 351062743 -1248576376 -1212484724 -539297688
        1841011602 473572324 40134128</internalNodes>
      <leafValues>
        -1.9414846599102020e-01 1.1278407275676727e-01</leafValues></_>
    <_>
      <internalNodes>
        0 -1 667 -1102067196 -869820470 1936875008 -772965326 1976706977
        -864215608 -128656143 506948900</internalNodes>
      <leafValues>
        -2.0739597082138062e-01 1.1319226026535034e-01</leafValues></_>
    <_>
      <internalNodes>
        0 -1 77 1191687250 -1884524915 560700965 -1136469046 595400252
        -852144070 -1166002327 -1405263015</internalNodes>
      <leafValues>
        -1.9310376048088074e-01 1.1685293167829514e-01</leafValues></_>
    <_>
      <internalNodes>
        0 -1 969 -467032705 -1085551065 -822871140 1572601715 1572064656
        -571007502 -1217865809 971171503</internalNodes>
      <leafValues>
        -1.1158083379268646e-01 2.1583195030689240e-01</leafValues></_>
    <_>
      <internalNodes>
        0 -1 333 250626178 613395692 66322478 547775496 1574338134
        2137391992 2111369523 606400144</internalNodes>
      <leafValues>
        -3.6916646361351013e-01 6.3557714223861694e-02</leafValues></_>
    <_>
      <internalNodes>
        0 -1 776 -1129064260 -675643923 -302044228 -84543360 1832727906
        1515683827 -552386892 -286097421</internalNodes>
      <leafValues>
        -1.3359440863132477e-01 1.7834959924221039e-01</leafValues></_>
    <_>
      <internalNodes>
        0 -1 737 1679085166 -961860903 -873024608 -424862046 2019778083
        1752984988 744846547 -1100974626</internalNodes>
      <leafValues>
        -2.0529416203498840e-01 1.1481898277997971e-01</leafValues></_>
    <_>
      <internalNodes>
        0 -1 836 -1723922922 1492088978 1934358049 -1107829773
        1883299870 -921421575 -1528293352 -1052645519</internalNodes>
      <leafValues>
        -1.4733850955963135e-01 1.5763477981090546e-01</leafValues></_>
    <_>
      <internalNodes>
        0 -1 520 1434644567 1332510575 -941141335 1290001842 1842896874
        -1403633686 327084647 -1080473153</internalNodes>
      <leafValues>
        -1.3784375786781311e-01 1.7552129924297333e-01</leafValues></_>
    <_>
      <internalNodes>
        0 -1 421 1205677996 985433954 1712846904 -204783838 1185706271
        1794557848 309211583 676945340</internalNodes>
      <leafValues>
        -1.8300284445285797e-01 1.2642854452133179e-01</leafValues></_></weakClassifiers></stage12>
</opencv_storage>
