<?xml version="1.0"?>
<opencv_storage>
<stage6>
  <maxWeakCount>33</maxWeakCount>
  <stageThreshold>-1.9696072340011597e+00</stageThreshold>
  <weakClassifiers>
    <_>
      <internalNodes>
        0 -1 447 1844425151 -1343309398 -134269647 -49501 1574761951
        -37769347 -139267 -1375863577</internalNodes>
      <leafValues>
        -7.8046727180480957e-01 -5.4345142841339111e-01</leafValues></_>
    <_>
      <internalNodes>
        0 -1 196 221301932 -1460224547 -1663699300 -1932088882 -17850950
        -1095322947 -198146 -1934092098</internalNodes>
      <leafValues>
        -4.3938198685646057e-01 -1.8400082364678383e-02</leafValues></_>
    <_>
      <internalNodes>
        0 -1 206 143142188 82635662 -134583808 -1343426654 1961322005
        1954413935 2080273684 -1527499308</internalNodes>
      <leafValues>
        -4.2149037122726440e-01 8.6904391646385193e-02</leafValues></_>
    <_>
      <internalNodes>
        0 -1 1560 716187276 -889946386 -537486798 -1363477762 -335907548
        -545510418 -2093208380 -189776476</internalNodes>
      <leafValues>
        -2.5507724285125732e-01 1.7091459035873413e-01</leafValues></_>
    <_>
      <internalNodes>
        0 -1 53 212351328 1005367206 -993147988 728677688 249247639
        2146275596 1055602599 -1374937852</internalNodes>
      <leafValues>
        -4.0287318825721741e-01 9.8715975880622864e-02</leafValues></_>
    <_>
      <internalNodes>
        0 -1 820 -370219640 -959660114 1068445476 -1110933856
        -1651165339 -135553153 -5377680 -70861920</internalNodes>
      <leafValues>
        -2.0041403174400330e-01 1.9235247373580933e-01</leafValues></_>
    <_>
      <internalNodes>
        0 -1 1420 -323088550 -474186087 -1224943624 -1291911245
        -253409906 -445153307 -72380700 -88281100</internalNodes>
      <leafValues>
        -1.8463584780693054e-01 2.0049643516540527e-01</leafValues></_>
    <_>
      <internalNodes>
        0 -1 1508 -1129314772 -1564866612 -824333594 -84760082
        -100750980 905870189 -1376331872 -1126168908</internalNodes>
      <leafValues>
        -2.4815788865089417e-01 1.4920297265052795e-01</leafValues></_>
    <_>
      <internalNodes>
        0 -1 339 1090850518 485424526 2119839786 1218539266 2090845949
        -33730619 651261307 -189272318</internalNodes>
      <leafValues>
        -2.2603489458560944e-01 1.5684176981449127e-01</leafValues></_>
    <_>
      <internalNodes>
        0 -1 256 1575773312 133079944 1901003041 -320341214 1449555412
        1823473110 -1677960380 -1930151577</internalNodes>
      <leafValues>
        -2.8901654481887817e-01 1.1808844655752182e-01</leafValues></_>
    <_>
      <internalNodes>
        0 -1 1084 -262139996 -286642790 -19995934 -1124716634 2088129877
        -1442854219 -849168528 -1230097423</internalNodes>
      <leafValues>
        -2.3492950201034546e-01 1.4867630600929260e-01</leafValues></_>
    <_>
      <internalNodes>
        0 -1 1316 -1566536316 -1583336273 -671636042 402571186
        -348803083 -1854512200 -1111542540 -425729546</internalNodes>
      <leafValues>
        -1.9150608777999878e-01 1.8867997825145721e-01</leafValues></_>
    <_>
      <internalNodes>
        0 -1 1598 -419689728 -1459799675 1356249867 451447530 -8641920
        1969975035 -1621418252 -1293385936</internalNodes>
      <leafValues>
        -2.6137766242027283e-01 1.4081461727619171e-01</leafValues></_>
    <_>
      <internalNodes>
        0 -1 727 1278098748 665366250 -570609488 -541574272 737682876
        -1653227781 2092836705 13896369</internalNodes>
      <leafValues>
        -3.2699209451675415e-01 1.0815875977277756e-01</leafValues></_>
    <_>
      <internalNodes>
        0 -1 1513 -122932224 1366175226 -86048800 -121761802 -1493681036
        1052133615 -3494468 -4976832</internalNodes>
      <leafValues>
        -2.0880937576293945e-01 1.6692870855331421e-01</leafValues></_>
    <_>
      <internalNodes>
        0 -1 185 1038362912 245129148 2146395260 2113675896 -341966870
        -269567109 664663844 713831100</internalNodes>
      <leafValues>
        -2.8920400142669678e-01 1.1737594008445740e-01</leafValues></_>
    <_>
      <internalNodes>
        0 -1 1461 1620364029 -383410275 998665453 1001340799 1061846766
        -268570865 -1174654453 -337531593</internalNodes>
      <leafValues>
        -1.5441972017288208e-01 2.2660134732723236e-01</leafValues></_>
    <_>
      <internalNodes>
        0 -1 623 -357661384 1106242976 -92330608 -961202382 1163295934
        -1627948453 66180541 -1930942473</internalNodes>
      <leafValues>
        -2.2880794107913971e-01 1.4452275633811951e-01</leafValues></_>
    <_>
      <internalNodes>
        0 -1 921 -2124117862 569093802 1247985152 -1093377168 496001894
        -572585297 -222011309 -1498138846</internalNodes>
      <leafValues>
        -2.7970093488693237e-01 1.2348909676074982e-01</leafValues></_>
    <_>
      <internalNodes>
        0 -1 844 -2006439936 -1360532694 -809719552 1919839266
        1943414592 335407805 -1293913840 735351142</internalNodes>
      <leafValues>
        -3.6180710792541504e-01 9.5068313181400299e-02</leafValues></_>
    <_>
      <internalNodes>
        0 -1 90 2106621348 -1898120378 1323052968 -373080 -268965007
        -995019909 -9609370 869968776</internalNodes>
      <leafValues>
        -2.2742159664630890e-01 1.5031322836875916e-01</leafValues></_>
    <_>
      <internalNodes>
        0 -1 1150 -1463900276 -1126248546 -610287675 -1198866450
        -571730720 -136406450 -1079345184 -84926990</internalNodes>
      <leafValues>
        -1.9727176427841187e-01 1.7112164199352264e-01</leafValues></_>
    <_>
      <internalNodes>
        0 -1 1597 -352552576 -2131215510 -19225364 -205890898
        -1210356636 1988076413 -37824528 -159406442</internalNodes>
      <leafValues>
        -1.9057513773441315e-01 1.8275810778141022e-01</leafValues></_>
    <_>
      <internalNodes>
        0 -1 487 1573603581 -957379164 1714565899 -1075244413 1544834558
        -328241258 -320674657 526850043</internalNodes>
      <leafValues>
        -1.6241346299648285e-01 2.0842072367668152e-01</leafValues></_>
    <_>
      <internalNodes>
        0 -1 105 31477402 497643238 -1602444946 587114668 1609944137
        1459458039 -1233193124 -1795275396</internalNodes>
      <leafValues>
        -2.7490639686584473e-01 1.3205762207508087e-01</leafValues></_>
    <_>
      <internalNodes>
        0 -1 997 -319155836 -1392590370 -8464088 -1112665028 -1224867483
        211680364 -1083406336 -1092673237</internalNodes>
      <leafValues>
        -2.0086227357387543e-01 1.6895943880081177e-01</leafValues></_>
    <_>
      <internalNodes>
        0 -1 1551 -458750164 1657804540 -87240650 1719319274 -33700603
        -2016824579 -570695520 -1993335256</internalNodes>
      <leafValues>
        -2.5752937793731689e-01 1.3011403381824493e-01</leafValues></_>
    <_>
      <internalNodes>
        0 -1 982 -1000822722 -1632847330 -847480270 -567498940 920459223
        -1207981186 -1172555975 -1378245501</internalNodes>
      <leafValues>
        -1.9680131971836090e-01 1.6830289363861084e-01</leafValues></_>
    <_>
      <internalNodes>
        0 -1 1584 755244180 -1384628684 1909374839 938750961 2012703276
        -873563165 435685100 853573460</internalNodes>
      <leafValues>
        -4.1710174083709717e-01 8.1276133656501770e-02</leafValues></_>
    <_>
      <internalNodes>
        0 -1 1320 -420552724 -103219587 2063511095 -1191252560
        -1359725156 2113106925 -739987276 -1159704716</internalNodes>
      <leafValues>
        -1.8159534037113190e-01 1.9149239361286163e-01</leafValues></_>
    <_>
      <internalNodes>
        0 -1 340 480789668 217846764 -4768962 -1508487420 -1320192736
        338656894 2065457740 1040979960</internalNodes>
      <leafValues>
        -3.6824789643287659e-01 8.8924817740917206e-02</leafValues></_>
    <_>
      <internalNodes>
        0 -1 533 1174187020 242793274 -1174436034 -51504372 2113157053
        1503535855 -774872716 -1391154752</internalNodes>
      <leafValues>
        -2.7748605608940125e-01 1.1690112948417664e-01</leafValues></_>
    <_>
      <internalNodes>
        0 -1 1436 -38254016 -1397024794 -88562709 -1729713296 1140181408
        1467210156 -82301776 -661779662</internalNodes>
      <leafValues>
        -2.1569582819938660e-01 1.5356191992759705e-01</leafValues></_></weakClassifiers></stage6>
</opencv_storage>
