<?xml version="1.0"?>
<opencv_storage>
<stage13>
  <maxWeakCount>58</maxWeakCount>
  <stageThreshold>-1.7817997932434082e+00</stageThreshold>
  <weakClassifiers>
    <_>
      <internalNodes>
        0 -1 429 -138939909 -278726 -1384293008 -606080093 -572678721
        -217331683 -93062689 -1345</internalNodes>
      <leafValues>
        -7.3637503385543823e-01 -4.6879833936691284e-01</leafValues></_>
    <_>
      <internalNodes>
        0 -1 18 -1765193641 1378854828 1440361641 2013203085 2107571595
        -841518401 -160174354 -77860929</internalNodes>
      <leafValues>
        -2.7953901886940002e-01 1.9347896799445152e-02</leafValues></_>
    <_>
      <internalNodes>
        0 -1 874 -516785788 1562968017 -1384649360 -1644464828
        1422163886 -1395362310 1993608683 -362052313</internalNodes>
      <leafValues>
        -1.2376317381858826e-01 1.6242644190788269e-01</leafValues></_>
    <_>
      <internalNodes>
        0 -1 994 -371815264 -33772252 -566264134 -671093086 -1779044000
        -1211306017 -239732972 -4503751</internalNodes>
      <leafValues>
        -1.1644077301025391e-01 1.7588773369789124e-01</leafValues></_>
    <_>
      <internalNodes>
        0 -1 816 1829536436 -1536291286 841156019 1588607474 775763387
        -956785216 1296303614 1224887679</internalNodes>
      <leafValues>
        -2.0654129981994629e-01 9.9158979952335358e-02</leafValues></_>
    <_>
      <internalNodes>
        0 -1 967 1386786966 -564335665 -989987150 455490960 -1082958655
        1653896996 -747764254 -1937061183</internalNodes>
      <leafValues>
        -1.1830328404903412e-01 1.7206913232803345e-01</leafValues></_>
    <_>
      <internalNodes>
        0 -1 450 -2107624954 -1913870418 -141548920 786595508 1974357440
        746219840 452816544 74871868</internalNodes>
      <leafValues>
        -3.2297214865684509e-01 7.3477283120155334e-02</leafValues></_>
    <_>
      <internalNodes>
        0 -1 450 2009319901 1895514111 -429837995 -579734983 -600003029
        -578884250 -1208498373 -1142309453</internalNodes>
      <leafValues>
        -6.7818716168403625e-02 3.2881632447242737e-01</leafValues></_>
    <_>
      <internalNodes>
        0 -1 754 -152346865 1340996523 1366639473 795293665 385796319
        -303723525 -182984964 -2036803445</internalNodes>
      <leafValues>
        -1.0690446197986603e-01 2.0166234672069550e-01</leafValues></_>
    <_>
      <internalNodes>
        0 -1 758 673981096 786490688 -822990336 -589187420 1385062689
        -2117043332 122951124 695232084</internalNodes>
      <leafValues>
        -3.6475297808647156e-01 5.0473563373088837e-02</leafValues></_>
    <_>
      <internalNodes>
        0 -1 1515 -1394201684 -429231638 1825089464 -88197648
        -1496475296 66804530 -88232030 -156335450</internalNodes>
      <leafValues>
        -1.4544089138507843e-01 1.3861837983131409e-01</leafValues></_>
    <_>
      <internalNodes>
        0 -1 1236 -255943940 -60408911 -1711292420 -1719538011
        1699785704 -480891058 1744204734 -819510726</internalNodes>
      <leafValues>
        -1.0125146061182022e-01 1.9706334173679352e-01</leafValues></_>
    <_>
      <internalNodes>
        0 -1 1519 766782240 652897247 -555776015 -1501614158 -1263123415
        934803975 -403188749 -291359265</internalNodes>
      <leafValues>
        -1.6935229301452637e-01 1.2543371319770813e-01</leafValues></_>
    <_>
      <internalNodes>
        0 -1 1257 1428835760 890642336 -1633042764 98568368 -16868268
        2134669932 1754545680 446737455</internalNodes>
      <leafValues>
        -2.2441264986991882e-01 9.1304957866668701e-02</leafValues></_>
    <_>
      <internalNodes>
        0 -1 97 41156616 -1540848086 134516896 -1434956128 1635731281
        786718499 486304373 216008304</internalNodes>
      <leafValues>
        -5.6362581253051758e-01 3.6565009504556656e-02</leafValues></_>
    <_>
      <internalNodes>
        0 -1 99 138308744 237263910 896936098 773897698 1360921152
        1638372220 2123634192 9831716</internalNodes>
      <leafValues>
        -5.3033578395843506e-01 3.3889997750520706e-02</leafValues></_>
    <_>
      <internalNodes>
        0 -1 114 -579241578 -101859329 1040180257 -236731033 -172761092
        1535081407 1979114734 -1109930249</internalNodes>
      <leafValues>
        -8.5385933518409729e-02 2.3944167792797089e-01</leafValues></_>
    <_>
      <internalNodes>
        0 -1 701 203685920 -1527989721 81484340 577122088 4085765
        1310501714 -1111745260 76550688</internalNodes>
      <leafValues>
        -5.6317216157913208e-01 3.7150863558053970e-02</leafValues></_>
    <_>
      <internalNodes>
        0 -1 684 1760584580 -1904850195 -1688412632 -1697340918
        804365877 143710236 -1167119184 1864558378</internalNodes>
      <leafValues>
        -2.1782951056957245e-01 9.2198885977268219e-02</leafValues></_>
    <_>
      <internalNodes>
        0 -1 652 -7870794 -1677901902 524122640 -1967390723 1172311750
        1559148539 -1627489990 -664571394</internalNodes>
      <leafValues>
        -1.3311210274696350e-01 1.5851587057113647e-01</leafValues></_>
    <_>
      <internalNodes>
        0 -1 1481 -1462228408 628293522 1725130331 47869616 1044851308
        1585688702 2129846828 -1163654896</internalNodes>
      <leafValues>
        -2.7428838610649109e-01 7.4630312621593475e-02</leafValues></_>
    <_>
      <internalNodes>
        0 -1 1364 1688267844 -489413332 -2080436814 -617186912 -71073352
        -4218615 -780373770 -1373639758</internalNodes>
      <leafValues>
        -1.3850107789039612e-01 1.4686453342437744e-01</leafValues></_>
    <_>
      <internalNodes>
        0 -1 855 -379588706 -571499042 1040088632 -575045856 895935640
        1574840188 -1678318085 -672466619</internalNodes>
      <leafValues>
        -1.0702947527170181e-01 1.9169087707996368e-01</leafValues></_>
    <_>
      <internalNodes>
        0 -1 963 -2125879104 124456934 -1398796747 -636142862 1461998118
        206978927 -708554743 850847788</internalNodes>
      <leafValues>
        -2.1487569808959961e-01 9.3977048993110657e-02</leafValues></_>
    <_>
      <internalNodes>
        0 -1 1092 18503794 1286520814 706881657 234159978 1047506936
        -1258605765 -1093651133 194479372</internalNodes>
      <leafValues>
        -1.9430208206176758e-01 1.0609637200832367e-01</leafValues></_>
    <_>
      <internalNodes>
        0 -1 262 1315881224 205458893 881518736 684113462 1635923248
        812984921 1812184336 611483126</internalNodes>
      <leafValues>
        -4.1597372293472290e-01 4.8783581703901291e-02</leafValues></_>
    <_>
      <internalNodes>
        0 -1 1293 -1210933764 -96895259 984936126 -101221305 -688425211
        -422805568 -394351126 -1460318227</internalNodes>
      <leafValues>
        -1.1090353876352310e-01 1.8761639297008514e-01</leafValues></_>
    <_>
      <internalNodes>
        0 -1 1278 547752636 -1774892675 1468349401 -1936004070
        -909357459 2009303533 634754420 -2070061500</internalNodes>
      <leafValues>
        -2.6079076528549194e-01 7.9053483903408051e-02</leafValues></_>
    <_>
      <internalNodes>
        0 -1 1218 1851963287 498054694 -2024460756 2025450548 -769505487
        674824114 -403316472 169039738</internalNodes>
      <leafValues>
        -1.6700619459152222e-01 1.2374682724475861e-01</leafValues></_>
    <_>
      <internalNodes>
        0 -1 525 1187548584 -1465734231 -364757677 -1639487320
        -363256707 2073440832 955716919 1044734032</internalNodes>
      <leafValues>
        -2.3083987832069397e-01 9.0215086936950684e-02</leafValues></_>
    <_>
      <internalNodes>
        0 -1 1329 144711736 776092993 1785966131 639900704 177478336
        398463664 276046752 744492656</internalNodes>
      <leafValues>
        -4.9064999818801880e-01 4.0701188147068024e-02</leafValues></_>
    <_>
      <internalNodes>
        0 -1 191 -579242780 -570634252 -1260258249 -751834343
        -1351828081 -1612213378 510869402 -1103365861</internalNodes>
      <leafValues>
        -8.7163396179676056e-02 2.4664081633090973e-01</leafValues></_>
    <_>
      <internalNodes>
        0 -1 162 -2147340604 7093156 -2014958994 413841132 -1736723876
        1172593245 1475860214 678343492</internalNodes>
      <leafValues>
        -3.0982494354248047e-01 7.1616955101490021e-02</leafValues></_>
    <_>
      <internalNodes>
        0 -1 1219 -403962752 -726760180 -154273324 -1633645018
        1628563208 234057728 2029036992 612020889</internalNodes>
      <leafValues>
        -1.9980920851230621e-01 1.0542783141136169e-01</leafValues></_>
    <_>
      <internalNodes>
        0 -1 1588 679477312 615538332 921969972 -1531031008 741946628
        536683136 702815572 542117472</internalNodes>
      <leafValues>
        -5.8877289295196533e-01 3.5002484917640686e-02</leafValues></_>
    <_>
      <internalNodes>
        0 -1 1248 127656267 1557073299 712436303 -828153998 251434089
        1069465452 -2010621959 1832071023</internalNodes>
      <leafValues>
        -1.3714678585529327e-01 1.5380270779132843e-01</leafValues></_>
    <_>
      <internalNodes>
        0 -1 1428 -788738292 1775257447 -9543832 -692674702 -306233619
        -1075355682 -120683358 -1090783588</internalNodes>
      <leafValues>
        -1.2765416502952576e-01 1.7124956846237183e-01</leafValues></_>
    <_>
      <internalNodes>
        0 -1 1401 -361885600 415121073 562493371 916519273 1421351116
        1709143339 2044493385 12925764</internalNodes>
      <leafValues>
        -2.4903173744678497e-01 8.5022240877151489e-02</leafValues></_>
    <_>
      <internalNodes>
        0 -1 576 92232116 -1943189696 -1571363936 1773317539 -943173788
        577789928 1344155993 552887931</internalNodes>
      <leafValues>
        -2.5202733278274536e-01 8.7321452796459198e-02</leafValues></_>
    <_>
      <internalNodes>
        0 -1 127 145227812 209870512 764215598 618964320 926551920
        -1135841203 1071862652 9704476</internalNodes>
      <leafValues>
        -6.2929427623748779e-01 3.2717756927013397e-02</leafValues></_>
    <_>
      <internalNodes>
        0 -1 330 1060854003 -175513627 -571131083 -1620495581 2043948517
        -1107537990 -33687685 1779682516</internalNodes>
      <leafValues>
        -1.0833122581243515e-01 2.0894786715507507e-01</leafValues></_>
    <_>
      <internalNodes>
        0 -1 783 -464911756 1856412954 307311521 -1026807422 -1268673174
        -923130635 2123785360 339158710</internalNodes>
      <leafValues>
        -2.4987550079822540e-01 9.0326838195323944e-02</leafValues></_>
    <_>
      <internalNodes>
        0 -1 671 -616309285 -42010905 -1264534401 -541081615 -35794325
        -1785854022 -68032533 -573186529</internalNodes>
      <leafValues>
        -7.0622682571411133e-02 3.1871181726455688e-01</leafValues></_>
    <_>
      <internalNodes>
        0 -1 630 226247426 551726573 -2101595134 551796577 -203552224
        1859455422 1686389328 349073218</internalNodes>
      <leafValues>
        -3.2681998610496521e-01 6.7522116005420685e-02</leafValues></_>
    <_>
      <internalNodes>
        0 -1 1049 681869880 887733544 -102937038 -2034295920 1259820150
        -1614546617 628454435 35919296</internalNodes>
      <leafValues>
        -3.1251612305641174e-01 6.4834892749786377e-02</leafValues></_>
    <_>
      <internalNodes>
        0 -1 255 -437475924 1063690124 1917071648 -819205455 1540712185
        905933144 -327550595 956033044</internalNodes>
      <leafValues>
        -1.6176027059555054e-01 1.3019345700740814e-01</leafValues></_>
    <_>
      <internalNodes>
        0 -1 344 73016576 246165612 -1093001194 208582830 400901285
        -614469360 540097910 1006958389</internalNodes>
      <leafValues>
        -3.6253827810287476e-01 6.1037965118885040e-02</leafValues></_>
    <_>
      <internalNodes>
        0 -1 91 2026778580 2079125326 784709612 782616032 525772551
        142392072 2141402727 261602379</internalNodes>
      <leafValues>
        -1.7063599824905396e-01 1.2385262548923492e-01</leafValues></_>
    <_>
      <internalNodes>
        0 -1 310 -1585682644 -1405220548 244260608 416946560 -1330874506
        2012856649 1243855897 373579476</internalNodes>
      <leafValues>
        -2.6954254508018494e-01 7.8445829451084137e-02</leafValues></_>
    <_>
      <internalNodes>
        0 -1 1229 -998898816 138621237 -1835490676 1118868834 25040980
        1086522059 1413825536 71504421</internalNodes>
      <leafValues>
        -4.4081878662109375e-01 4.7161970287561417e-02</leafValues></_>
    <_>
      <internalNodes>
        0 -1 885 2106768598 939513704 -1256644944 -647199054 1762937052
        1878442398 -1219485326 947734358</internalNodes>
      <leafValues>
        -1.5792587399482727e-01 1.3548137247562408e-01</leafValues></_>
    <_>
      <internalNodes>
        0 -1 47 293240530 1222764069 -996269233 571373746 268557565
        606729149 -1365286626 1842802638</internalNodes>
      <leafValues>
        -1.9926741719245911e-01 1.1224076896905899e-01</leafValues></_>
    <_>
      <internalNodes>
        0 -1 1284 -1766536376 -14129221 2108370165 -92611814 -244957912
        1183484321 -95964410 -40367168</internalNodes>
      <leafValues>
        -1.5596748888492584e-01 1.4152294397354126e-01</leafValues></_>
    <_>
      <internalNodes>
        0 -1 548 2126546132 -453600156 1595793129 2080066386 -780604860
        -2013281604 -1334660535 54508832</internalNodes>
      <leafValues>
        -1.5712063014507294e-01 1.3271638751029968e-01</leafValues></_>
    <_>
      <internalNodes>
        0 -1 1340 -1933958384 -1003970006 -890275845 -1935769936
        -1250487696 1868585643 732718896 1779564676</internalNodes>
      <leafValues>
        -2.9434311389923096e-01 7.2278231382369995e-02</leafValues></_>
    <_>
      <internalNodes>
        0 -1 1352 660581806 -1878508455 -29095900 624004475 -1800928842
        -109228008 -1987032130 -1495192859</internalNodes>
      <leafValues>
        -1.4563351869583130e-01 1.4767099916934967e-01</leafValues></_>
    <_>
      <internalNodes>
        0 -1 25 162552972 148645995 944482560 343910342 -1318641904
        1128107780 -1097501941 729906094</internalNodes>
      <leafValues>
        -2.3785844445228577e-01 9.0482860803604126e-02</leafValues></_>
    <_>
      <internalNodes>
        0 -1 1593 1278801632 1734656345 -1426455072 -1189448934
        863279380 737303867 -1443345004 -1708776655</internalNodes>
      <leafValues>
        -1.9518809020519257e-01 1.1072901636362076e-01</leafValues></_></weakClassifiers></stage13>
</opencv_storage>
