<?xml version="1.0"?>
<opencv_storage>
<stage9>
  <maxWeakCount>47</maxWeakCount>
  <stageThreshold>-1.8990079164505005e+00</stageThreshold>
  <weakClassifiers>
    <_>
      <internalNodes>
        0 -1 568 -68157441 -607142262 -19042031 -169617613 298441210
        -639500613 -205662801 -17</internalNodes>
      <leafValues>
        -7.4671769142150879e-01 -3.3792310953140259e-01</leafValues></_>
    <_>
      <internalNodes>
        0 -1 483 -672139265 -546314354 484256699 -2919885 1299840410
        -1969840714 -1791100933 -738750465</internalNodes>
      <leafValues>
        -2.7647519111633301e-01 2.0424360036849976e-01</leafValues></_>
    <_>
      <internalNodes>
        0 -1 1029 1296933630 1411869184 -1975769583 2020935952 608961690
        1418759950 171296510 356591599</internalNodes>
      <leafValues>
        -2.2161297500133514e-01 1.4522267878055573e-01</leafValues></_>
    <_>
      <internalNodes>
        0 -1 622 -945303754 -34627930 1719537584 -738794826 1561380795
        1291804541 1165391549 291897063</internalNodes>
      <leafValues>
        -1.5730002522468567e-01 1.8106608092784882e-01</leafValues></_>
    <_>
      <internalNodes>
        0 -1 180 -863449970 74196902 -1433392606 -1501238136 -2034465649
        902488717 -998868612 148195956</internalNodes>
      <leafValues>
        -3.5998606681823730e-01 7.8303024172782898e-02</leafValues></_>
    <_>
      <internalNodes>
        0 -1 186 -1784603520 972663803 2095934384 -1078333997
        -1770760938 -604782594 -1906038622 -1534303885</internalNodes>
      <leafValues>
        -1.1064157634973526e-01 2.3246757686138153e-01</leafValues></_>
    <_>
      <internalNodes>
        0 -1 1480 -350198004 -1896083978 2112805436 -1462081094
        -579446015 1905815215 -153623516 -1394592188</internalNodes>
      <leafValues>
        -2.8824922442436218e-01 7.9060986638069153e-02</leafValues></_>
    <_>
      <internalNodes>
        0 -1 1435 1518728158 2036727490 -1628229644 1801891312 889187022
        2138013558 1492510654 -571097778</internalNodes>
      <leafValues>
        -9.7198709845542908e-02 2.5117495656013489e-01</leafValues></_>
    <_>
      <internalNodes>
        0 -1 876 -1347026656 -1359310083 2027874858 -822127688 -33729774
        -606782927 -697893003 -625266649</internalNodes>
      <leafValues>
        -1.8823246657848358e-01 1.5311637520790100e-01</leafValues></_>
    <_>
      <internalNodes>
        0 -1 398 -844182867 459236814 -1124328648 -1511470493 -798754819
        868804988 886903898 -1068799812</internalNodes>
      <leafValues>
        -1.6738834977149963e-01 1.6258099675178528e-01</leafValues></_>
    <_>
      <internalNodes>
        0 -1 1542 -319081364 -839336835 -420745558 -18707761 -77849088
        -25560845 -269566318 -1930386196</internalNodes>
      <leafValues>
        -1.8250882625579834e-01 1.4625756442546844e-01</leafValues></_>
    <_>
      <internalNodes>
        0 -1 517 1551688752 -403735392 2071272725 -722763614 1289780095
        1962904272 -1119877250 -2136473610</internalNodes>
      <leafValues>
        -1.9126601517200470e-01 1.4051684737205505e-01</leafValues></_>
    <_>
      <internalNodes>
        0 -1 225 936386376 703131334 879536962 249153192 2061990773
        1950120829 291319889 115349904</internalNodes>
      <leafValues>
        -3.8762688636779785e-01 6.9919876754283905e-02</leafValues></_>
    <_>
      <internalNodes>
        0 -1 643 -483841868 -1965031770 716485240 2125436834 1498244471
        1236936955 1012197114 687591679</internalNodes>
      <leafValues>
        -2.0962418615818024e-01 1.2662693858146667e-01</leafValues></_>
    <_>
      <internalNodes>
        0 -1 242 -1974745186 1022349094 2063082370 -1400903829
        1618440720 -61228040 1771433876 -1778947473</internalNodes>
      <leafValues>
        -1.9322767853736877e-01 1.4131993055343628e-01</leafValues></_>
    <_>
      <internalNodes>
        0 -1 35 -662741532 897416807 -1249288 -1655578 -1376389187
        2086469591 -214018083 918287063</internalNodes>
      <leafValues>
        -1.3370539247989655e-01 2.0675458014011383e-01</leafValues></_>
    <_>
      <internalNodes>
        0 -1 1599 210371684 113000108 -721535102 620668558 2054640932
        23866198 -34058704 82063712</internalNodes>
      <leafValues>
        -5.2866345643997192e-01 5.1034919917583466e-02</leafValues></_>
    <_>
      <internalNodes>
        0 -1 1186 -1536273132 -492253472 1073718442 -1363800218
        -193439312 1953984312 1635015636 1054879520</internalNodes>
      <leafValues>
        -2.9614740610122681e-01 8.5555441677570343e-02</leafValues></_>
    <_>
      <internalNodes>
        0 -1 1118 -855920603 -1663248922 -881431120 -608437834
        2112300927 74500532 -176928777 -1561114141</internalNodes>
      <leafValues>
        -1.6051103174686432e-01 1.7060413956642151e-01</leafValues></_>
    <_>
      <internalNodes>
        0 -1 1005 1559663668 -1216808986 -101201184 -1953776624
        1853119932 1953299066 -105459136 283334230</internalNodes>
      <leafValues>
        -2.1216376125812531e-01 1.2794129550457001e-01</leafValues></_>
    <_>
      <internalNodes>
        0 -1 1585 69731712 78011044 721010472 -1163234828 -143985356
        1843802026 -1082655004 -1330377368</internalNodes>
      <leafValues>
        -2.6391839981079102e-01 1.0276757925748825e-01</leafValues></_>
    <_>
      <internalNodes>
        0 -1 1336 -987042780 865382188 -1495879976 1613430386 385625676
        1870056827 -486561048 12664130</internalNodes>
      <leafValues>
        -2.3864831030368805e-01 1.1194314062595367e-01</leafValues></_>
    <_>
      <internalNodes>
        0 -1 935 3547444 145683990 993945252 -1460005712 1622940984
        351791166 2138858788 83113584</internalNodes>
      <leafValues>
        -5.4721105098724365e-01 4.8931054770946503e-02</leafValues></_>
    <_>
      <internalNodes>
        0 -1 21 543696066 82210734 -892583264 537193110 51406633
        1110826475 869351796 7825283</internalNodes>
      <leafValues>
        -5.5757182836532593e-01 4.2985193431377411e-02</leafValues></_>
    <_>
      <internalNodes>
        0 -1 516 -570835554 1071823334 1073542435 -67624 612171247
        -876486801 -59050818 -1327368626</internalNodes>
      <leafValues>
        -1.2836809456348419e-01 2.0586045086383820e-01</leafValues></_>
    <_>
      <internalNodes>
        0 -1 1234 -990084060 1605221118 -86608214 -1967933566
        -1069682428 767613213 -286653836 -1227975371</internalNodes>
      <leafValues>
        -1.9888117909431458e-01 1.3608893752098083e-01</leafValues></_>
    <_>
      <internalNodes>
        0 -1 1372 -1464153580 475119320 -1341848578 1050591072
        1055537821 1867877057 -284268436 -1762258897</internalNodes>
      <leafValues>
        -2.2246964275836945e-01 1.2083172053098679e-01</leafValues></_>
    <_>
      <internalNodes>
        0 -1 1119 1094553508 1262200564 -235410000 999138770 884476636
        -2013971753 -843370978 477362087</internalNodes>
      <leafValues>
        -1.8144042789936066e-01 1.4632612466812134e-01</leafValues></_>
    <_>
      <internalNodes>
        0 -1 700 -1531701200 74853448 -1340477980 -301273558 1320508193
        375317087 -1284098544 548014396</internalNodes>
      <leafValues>
        -3.7512007355690002e-01 7.2731606662273407e-02</leafValues></_>
    <_>
      <internalNodes>
        0 -1 144 1568275846 -1113068113 2126163628 -541344004 -442089939
        2078138238 905853831 -1896382575</internalNodes>
      <leafValues>
        -1.3886231184005737e-01 2.0475575327873230e-01</leafValues></_>
    <_>
      <internalNodes>
        0 -1 1570 502673192 -1496359460 -581436684 -1329792310
        -637535452 -581534726 -298000764 -1865384092</internalNodes>
      <leafValues>
        -2.3352554440498352e-01 1.1351811140775681e-01</leafValues></_>
    <_>
      <internalNodes>
        0 -1 732 1997348508 -94132532 -526959453 -555356384 660357790
        -177291334 -1969397271 429244026</internalNodes>
      <leafValues>
        -1.6679178178310394e-01 1.6049197316169739e-01</leafValues></_>
    <_>
      <internalNodes>
        0 -1 80 203843584 -1402016626 1820077738 640517806 1280732757
        1704968940 -168804408 13309289</internalNodes>
      <leafValues>
        -4.0606978535652161e-01 6.8908706307411194e-02</leafValues></_>
    <_>
      <internalNodes>
        0 -1 865 2102125331 -998851096 1885645590 -705954139 1512771493
        -1904930979 1592878367 16348527</internalNodes>
      <leafValues>
        -1.6277863085269928e-01 1.6129271686077118e-01</leafValues></_>
    <_>
      <internalNodes>
        0 -1 1462 -1532098520 707165150 -1097925464 -1437704030
        1626239488 1119163284 -546021600 1151337536</internalNodes>
      <leafValues>
        -4.4354379177093506e-01 5.9613827615976334e-02</leafValues></_>
    <_>
      <internalNodes>
        0 -1 231 1576987436 -1351827736 2065381938 -1111499271
        1947863189 1969944702 -2064450307 -1154844622</internalNodes>
      <leafValues>
        -1.6758197546005249e-01 1.5301363170146942e-01</leafValues></_>
    <_>
      <internalNodes>
        0 -1 85 444768951 183332649 1719417836 -333837318 -1111742232
        -388180558 -1158289589 1583137014</internalNodes>
      <leafValues>
        -1.9669933617115021e-01 1.3403607904911041e-01</leafValues></_>
    <_>
      <internalNodes>
        0 -1 1078 -182717134 1605139878 -1829963144 -1213007022
        -562266243 -680050833 -2837034 -1412210845</internalNodes>
      <leafValues>
        -1.3808903098106384e-01 1.9423878192901611e-01</leafValues></_>
    <_>
      <internalNodes>
        0 -1 113 -574327314 -1648492676 1521827568 -1174452696 653620660
        2013231093 -1363385052 -1944674347</internalNodes>
      <leafValues>
        -1.4561519026756287e-01 1.9161039590835571e-01</leafValues></_>
    <_>
      <internalNodes>
        0 -1 1408 337264792 112240816 -1309529168 947073505 1693082638
        1850539999 988164668 55918178</internalNodes>
      <leafValues>
        -2.8858321905136108e-01 9.3040883541107178e-02</leafValues></_>
    <_>
      <internalNodes>
        0 -1 26 271590316 575177256 1310501644 -1964393854 289177175
        469545560 1452482388 8660</internalNodes>
      <leafValues>
        -4.4130280613899231e-01 5.7169806212186813e-02</leafValues></_>
    <_>
      <internalNodes>
        0 -1 1276 -1362192540 -594404080 1280500978 -1393133776
        -1092607547 -1947385283 -1532713680 649474693</internalNodes>
      <leafValues>
        -2.4436929821968079e-01 1.0614646226167679e-01</leafValues></_>
    <_>
      <internalNodes>
        0 -1 1443 1545593176 1783930755 1467099065 1973909976 1811139946
        -28871328 636893409 -1746329137</internalNodes>
      <leafValues>
        -1.6343477368354797e-01 1.6813969612121582e-01</leafValues></_>
    <_>
      <internalNodes>
        0 -1 1028 141164832 671845416 1885102112 -1661397408 970724724
        1479310733 -1470876654 100677480</internalNodes>
      <leafValues>
        -4.6069690585136414e-01 5.7788353413343430e-02</leafValues></_>
    <_>
      <internalNodes>
        0 -1 739 -42208769 -60067918 2128004617 -38437917 -714095781
        -1631830074 496892399 -36053761</internalNodes>
      <leafValues>
        -8.0970473587512970e-02 3.5420563817024231e-01</leafValues></_>
    <_>
      <internalNodes>
        0 -1 1114 -1231124944 869311261 -75813932 938249198 -1289281948
        98931405 1954049840 -486840132</internalNodes>
      <leafValues>
        -1.8684208393096924e-01 1.4495255053043365e-01</leafValues></_>
    <_>
      <internalNodes>
        0 -1 478 -573118148 2087642366 -631824334 -822447198 877384404
        1859261207 804683646 -1175149077</internalNodes>
      <leafValues>
        -1.7960388958454132e-01 1.6452635824680328e-01</leafValues></_></weakClassifiers></stage9>
</opencv_storage>
