<?xml version="1.0"?>
<opencv_storage>
<stage4>
  <maxWeakCount>29</maxWeakCount>
  <stageThreshold>-2.0465970039367676e+00</stageThreshold>
  <weakClassifiers>
    <_>
      <internalNodes>
        0 -1 257 -269484033 -1347436629 -570436111 -69 -33554433
        -335550721 -1 -1</internalNodes>
      <leafValues>
        -7.5901496410369873e-01 -1.9545726478099823e-01</leafValues></_>
    <_>
      <internalNodes>
        0 -1 2 150781951 802090923 -538973327 -33570821 2146399095
        -1342190673 -134253737 -2</internalNodes>
      <leafValues>
        -3.7787488102912903e-01 1.1735845357179642e-01</leafValues></_>
    <_>
      <internalNodes>
        0 -1 130 209504428 749342510 -1968292680 -1359020818 1094612349
        804257655 1191163380 -1392583240</internalNodes>
      <leafValues>
        -4.1251730918884277e-01 1.3589729368686676e-01</leafValues></_>
    <_>
      <internalNodes>
        0 -1 664 -806357697 -1901134870 -545310190 -1344078938
        1157587063 1610534571 2145613168 -285280257</internalNodes>
      <leafValues>
        -2.2395731508731842e-01 2.4259471893310547e-01</leafValues></_>
    <_>
      <internalNodes>
        0 -1 1406 -285720739 800473087 -16790026 -1087181005 -553693684
        -137 -130273692 -119079054</internalNodes>
      <leafValues>
        -1.7780940234661102e-01 2.6572215557098389e-01</leafValues></_>
    <_>
      <internalNodes>
        0 -1 1545 -1495504984 804724735 -1359462756 -553981454 -42029548
        -1275692771 -1142490368 -44243132</internalNodes>
      <leafValues>
        -2.6729196310043335e-01 1.8278931081295013e-01</leafValues></_>
    <_>
      <internalNodes>
        0 -1 1136 -1351715335 737980392 1541370877 -1624653903
        1834973713 -1984050179 467480688 -16994368</internalNodes>
      <leafValues>
        -2.4666635692119598e-01 1.9648739695549011e-01</leafValues></_>
    <_>
      <internalNodes>
        0 -1 55 1173710829 753700270 -570442070 -1351794996 904363853
        1298004831 -36554 -1403460100</internalNodes>
      <leafValues>
        -2.5868964195251465e-01 1.7774859070777893e-01</leafValues></_>
    <_>
      <internalNodes>
        0 -1 1574 587078669 -1360261398 1340079790 1224134548
        -1686227196 -155222858 1844197220 -18304080</internalNodes>
      <leafValues>
        -2.9295852780342102e-01 1.5495519340038300e-01</leafValues></_>
    <_>
      <internalNodes>
        0 -1 1167 -1951651044 786755385 -1283758541 -1112866912
        1761361276 2141192058 -249232 -321619945</internalNodes>
      <leafValues>
        -2.7740785479545593e-01 1.6180282831192017e-01</leafValues></_>
    <_>
      <internalNodes>
        0 -1 1595 -1393664277 -1476792582 -1075003649 -1124160534
        -59836668 -453068818 -9648816 -83956174</internalNodes>
      <leafValues>
        -2.0153163373470306e-01 2.2127905488014221e-01</leafValues></_>
    <_>
      <internalNodes>
        0 -1 378 1279017004 216057645 1742617904 -1360352853 1691678757
        1625152116 -1258524368 -1929638156</internalNodes>
      <leafValues>
        -3.9408075809478760e-01 1.1656189709901810e-01</leafValues></_>
    <_>
      <internalNodes>
        0 -1 428 -462648918 1739505282 2147421489 -121568 1302162937
        -315720098 284497145 -2009308942</internalNodes>
      <leafValues>
        -2.7946755290031433e-01 1.6652591526508331e-01</leafValues></_>
    <_>
      <internalNodes>
        0 -1 111 214177749 797615994 601825264 364805804 2138404663
        1758925664 1744785269 -1092698631</internalNodes>
      <leafValues>
        -2.8550603985786438e-01 1.6084413230419159e-01</leafValues></_>
    <_>
      <internalNodes>
        0 -1 1469 -1879572493 -284737569 -1468616965 938146764
        -1210237147 -286859341 -1094892524 -890245325</internalNodes>
      <leafValues>
        -1.7876282334327698e-01 2.6959437131881714e-01</leafValues></_>
    <_>
      <internalNodes>
        0 -1 1243 144709268 -1380404072 1877966325 2134646352 619974076
        1071601888 2112640433 804524356</internalNodes>
      <leafValues>
        -5.7066822052001953e-01 8.5544154047966003e-02</leafValues></_>
    <_>
      <internalNodes>
        0 -1 736 -834802346 -2002783250 -53019982 -1196822734 2005556534
        213598175 1558581574 1895298918</internalNodes>
      <leafValues>
        -3.3152496814727783e-01 1.3872437179088593e-01</leafValues></_>
    <_>
      <internalNodes>
        0 -1 1303 750594845 231670650 -1074349665 520070866 -539005442
        -421997595 -1200605868 -891397856</internalNodes>
      <leafValues>
        -2.6194724440574646e-01 1.6928224265575409e-01</leafValues></_>
    <_>
      <internalNodes>
        0 -1 295 1601132903 677818350 1744183602 -7667730 1427600509
        1952921695 1142815868 -461792412</internalNodes>
      <leafValues>
        -2.1959377825260162e-01 1.9266918301582336e-01</leafValues></_>
    <_>
      <internalNodes>
        0 -1 580 -302124546 -2052407684 -4265632 1711270858 -403802511
        1610088399 -1267237072 -625148718</internalNodes>
      <leafValues>
        -2.0513476431369781e-01 2.1188490092754364e-01</leafValues></_>
    <_>
      <internalNodes>
        0 -1 382 128747176 40279498 -733519826 1680646118 644809625
        100555100 1870610835 -1536731714</internalNodes>
      <leafValues>
        -3.5558223724365234e-01 1.1940645426511765e-01</leafValues></_>
    <_>
      <internalNodes>
        0 -1 419 -638585259 -34884632 -798068045 1811493442 1434308025
        -587247621 -956367173 -527425</internalNodes>
      <leafValues>
        -1.1871986836194992e-01 3.5130980610847473e-01</leafValues></_>
    <_>
      <internalNodes>
        0 -1 882 742132620 -1346378324 -274783467 -570720351 1836734071
        -805466849 2105376608 -1633930128</internalNodes>
      <leafValues>
        -3.2865974307060242e-01 1.3594456017017365e-01</leafValues></_>
    <_>
      <internalNodes>
        0 -1 1299 -1369570951 594163609 -1647595982 -1229243333
        -489277744 -2319873 -1715377104 -822970394</internalNodes>
      <leafValues>
        -2.3208695650100708e-01 1.8149483203887939e-01</leafValues></_>
    <_>
      <internalNodes>
        0 -1 1209 209987852 227157786 2086225494 -1260773456 351616856
        1046292470 -1544223741 674563879</internalNodes>
      <leafValues>
        -4.0851485729217529e-01 1.0494305193424225e-01</leafValues></_>
    <_>
      <internalNodes>
        0 -1 164 -1799108948 -1670996022 -672913822 821451050 -44196353
        252079041 -1964088200 -2070983901</internalNodes>
      <leafValues>
        -2.7151662111282349e-01 1.5059429407119751e-01</leafValues></_>
    <_>
      <internalNodes>
        0 -1 145 -453498620 -1937715315 1558623676 -1117507658 93813365
        786889723 1961241908 -1408451152</internalNodes>
      <leafValues>
        -3.3371990919113159e-01 1.2270884960889816e-01</leafValues></_>
    <_>
      <internalNodes>
        0 -1 1495 -1931598316 648314858 -715397281 849053948 -672330980
        2145516347 1891579460 -323474656</internalNodes>
      <leafValues>
        -3.2789185643196106e-01 1.2725742161273956e-01</leafValues></_>
    <_>
      <internalNodes>
        0 -1 400 -343959337 -345017106 1072951217 -1578036 -144710689
        -1176699908 2139059506 -9503489</internalNodes>
      <leafValues>
        -1.2087063491344452e-01 3.4543925523757935e-01</leafValues></_></weakClassifiers></stage4>
</opencv_storage>
