<?xml version="1.0"?>
<opencv_storage>
<stage0>
  <maxWeakCount>18</maxWeakCount>
  <stageThreshold>-2.4224002361297607e+00</stageThreshold>
  <weakClassifiers>
    <_>
      <internalNodes>
        0 -1 14 -839922949 -1380997501 -962657903 -64533 1572820479
        -805331025 1577017855 -1</internalNodes>
      <leafValues>
        -8.0814510583877563e-01 8.7499998509883881e-02</leafValues></_>
    <_>
      <internalNodes>
        0 -1 224 1078919554 126814306 44171778 1935868675 1419605385
        1303076263 1993806851 2143289343</internalNodes>
      <leafValues>
        -6.2622421979904175e-01 2.0429804921150208e-01</leafValues></_>
    <_>
      <internalNodes>
        0 -1 44 1082130466 -1936809054 3407872 78250594 1137200073
        266852323 740049921 620750399</internalNodes>
      <leafValues>
        -6.2487661838531494e-01 1.3790538907051086e-01</leafValues></_>
    <_>
      <internalNodes>
        0 -1 207 1877879086 -1360484954 1568355360 -33606998 1416590845
        368049655 -790334379 -1107361865</internalNodes>
      <leafValues>
        -3.4451279044151306e-01 2.4812577664852142e-01</leafValues></_>
    <_>
      <internalNodes>
        0 -1 221 -286913472 71814378 -964034048 -161304798 1736265472
        1448538103 283997696 1962409983</internalNodes>
      <leafValues>
        -4.7792175412178040e-01 1.7575651407241821e-01</leafValues></_>
    <_>
      <internalNodes>
        0 -1 1585 255591680 -2035351584 738146109 -625017866 -428059376
        -1494335893 2122118708 -84875936</internalNodes>
      <leafValues>
        -3.7667778134346008e-01 1.9444619119167328e-01</leafValues></_>
    <_>
      <internalNodes>
        0 -1 1134 -812801870 -852871272 -1304713455 -651071215 198997160
        2109423608 774190566 1249588263</internalNodes>
      <leafValues>
        -3.0404767394065857e-01 2.5046887993812561e-01</leafValues></_>
    <_>
      <internalNodes>
        0 -1 479 -1348215381 -1348064214 -143191791 -34951902 1087204759
        107999199 1289803250 -1375765145</internalNodes>
      <leafValues>
        -2.0724080502986908e-01 3.3138802647590637e-01</leafValues></_>
    <_>
      <internalNodes>
        0 -1 1538 -1434964528 -825465338 263383492 -1298232092
        -109298092 -1674052739 -279906560 -117690508</internalNodes>
      <leafValues>
        -3.3771139383316040e-01 2.0058070123195648e-01</leafValues></_>
    <_>
      <internalNodes>
        0 -1 9 734821034 -1347509600 -761184228 1071332717 73774645
        2102917995 250904309 -1933579187</internalNodes>
      <leafValues>
        -3.3001366257667542e-01 2.0756639540195465e-01</leafValues></_>
    <_>
      <internalNodes>
        0 -1 819 -449871744 -1515225202 1397758130 -1674381342
        1187141828 838749162 758268256 1146550051</internalNodes>
      <leafValues>
        -3.9860424399375916e-01 1.6814558207988739e-01</leafValues></_>
    <_>
      <internalNodes>
        0 -1 1162 -1430380763 -906267782 -1143770249 -1096103178
        -1829211696 -318115145 -341429712 -4260494</internalNodes>
      <leafValues>
        -2.5949016213417053e-01 2.6517051458358765e-01</leafValues></_>
    <_>
      <internalNodes>
        0 -1 1478 1855849472 687245847 924544948 -2038809962 -1528363916
        960453557 322833169 -1090639885</internalNodes>
      <leafValues>
        -3.5377591848373413e-01 1.8499456346035004e-01</leafValues></_>
    <_>
      <internalNodes>
        0 -1 737 1180304850 -1477771520 -397004528 2074440226 1752308623
        1077900221 745043665 544599878</internalNodes>
      <leafValues>
        -3.5431826114654541e-01 1.7558868229389191e-01</leafValues></_>
    <_>
      <internalNodes>
        0 -1 1381 -1072693452 257101718 779527153 2071393798 1354630076
        -1633430649 481439104 -825577694</internalNodes>
      <leafValues>
        -2.6710066199302673e-01 2.2747784852981567e-01</leafValues></_>
    <_>
      <internalNodes>
        0 -1 1084 -387303710 -1360089166 -18944013 2143239678
        -1267464875 176029629 -538445964 -1096097105</internalNodes>
      <leafValues>
        -2.3852810263633728e-01 2.6000609993934631e-01</leafValues></_>
    <_>
      <internalNodes>
        0 -1 1519 742075152 -1879101601 -570512493 -1896154830
        -1986584351 1073111347 -404317200 -1363503308</internalNodes>
      <leafValues>
        -3.0523636937141418e-01 1.9997209310531616e-01</leafValues></_>
    <_>
      <internalNodes>
        0 -1 761 -805415790 -1345407072 38156752 -1122011392 1214079601
        1071622307 -546410192 -291583867</internalNodes>
      <leafValues>
        -2.5883510708808899e-01 2.4046865105628967e-01</leafValues></_></weakClassifiers></stage0>
</opencv_storage>
