<?xml version="1.0"?>
<opencv_storage>
<stage8>
  <maxWeakCount>46</maxWeakCount>
  <stageThreshold>-1.9609310626983643e+00</stageThreshold>
  <weakClassifiers>
    <_>
      <internalNodes>
        0 -1 414 -538445825 -34886742 1004217171 2008495075 2103042527
        -318840905 -411568133 -4194305</internalNodes>
      <leafValues>
        -7.5076407194137573e-01 -4.5825603604316711e-01</leafValues></_>
    <_>
      <internalNodes>
        0 -1 348 -602618710 -1934774354 57673770 -2047105626 1173934071
        1584815908 -1112167617 -1404729410</internalNodes>
      <leafValues>
        -4.0686252713203430e-01 -5.0839841365814209e-02</leafValues></_>
    <_>
      <internalNodes>
        0 -1 832 -1392734416 -297748692 -1483856 -18698272 2062837012
        1547655158 -218700188 -139493677</internalNodes>
      <leafValues>
        -2.0545402169227600e-01 1.4299443364143372e-01</leafValues></_>
    <_>
      <internalNodes>
        0 -1 299 -1672030722 -1175479068 1072575292 -1678640194
        1337740799 1951193087 2097053678 -1531611659</internalNodes>
      <leafValues>
        -1.5567308664321899e-01 1.9395944476127625e-01</leafValues></_>
    <_>
      <internalNodes>
        0 -1 541 82051368 -1939165270 998058576 -1896989636 100542068
        743761847 1691771169 143157756</internalNodes>
      <leafValues>
        -4.7546854615211487e-01 9.7631946206092834e-02</leafValues></_>
    <_>
      <internalNodes>
        0 -1 31 702030892 673712608 -286711256 -420335732 893482260
        1417541115 1694399844 612117796</internalNodes>
      <leafValues>
        -4.8021021485328674e-01 6.5582163631916046e-02</leafValues></_>
    <_>
      <internalNodes>
        0 -1 807 155755682 1026322344 -828325978 -567192784 1216246228
        -175608834 -1127057829 753222975</internalNodes>
      <leafValues>
        -2.6552513241767883e-01 9.5163904130458832e-02</leafValues></_>
    <_>
      <internalNodes>
        0 -1 123 1376194534 348511534 -1527635414 -1561529422 1861403125
        1992646605 -1196140835 106417783</internalNodes>
      <leafValues>
        -2.5600394606590271e-01 1.1479796469211578e-01</leafValues></_>
    <_>
      <internalNodes>
        0 -1 1117 787358980 245668262 2136972392 -1258377848 1970578533
        -1485184022 -18925792 -1493227241</internalNodes>
      <leafValues>
        -2.3890928924083710e-01 1.1867586523294449e-01</leafValues></_>
    <_>
      <internalNodes>
        0 -1 25 234380740 -2099351953 -1169707096 1547695078 863477508
        1364937340 1595290406 2133357226</internalNodes>
      <leafValues>
        -2.5663536787033081e-01 1.1625666171312332e-01</leafValues></_>
    <_>
      <internalNodes>
        0 -1 1518 -319676064 -360839432 -230761794 -201946586 2130625076
        159837571 -270923902 -17613650</internalNodes>
      <leafValues>
        -1.7100027203559875e-01 1.6726924479007721e-01</leafValues></_>
    <_>
      <internalNodes>
        0 -1 973 -1396138848 -1476736430 -27302928 2100965868 1995798388
        -203593607 -470948047 -1074307085</internalNodes>
      <leafValues>
        -1.8207864463329315e-01 1.5872763097286224e-01</leafValues></_>
    <_>
      <internalNodes>
        0 -1 904 1705518142 -861499504 1335837299 -856869582 1429534635
        -1929593300 1028935900 -1365671442</internalNodes>
      <leafValues>
        -1.9810537993907928e-01 1.4353170990943909e-01</leafValues></_>
    <_>
      <internalNodes>
        0 -1 1410 -270397344 2112943853 -595662932 -189203464 -574069548
        -712587148 -8419344 -1258654814</internalNodes>
      <leafValues>
        -1.7202006280422211e-01 1.6697454452514648e-01</leafValues></_>
    <_>
      <internalNodes>
        0 -1 604 -961266652 375924576 -1109690576 -1293650638 1894856571
        1987662647 -1595182028 542180661</internalNodes>
      <leafValues>
        -2.9462090134620667e-01 9.9357306957244873e-02</leafValues></_>
    <_>
      <internalNodes>
        0 -1 614 1264377592 -1930514548 -295552352 -513577185 -312584843
        -1531240478 -722079010 214193239</internalNodes>
      <leafValues>
        -2.2829143702983856e-01 1.2911465764045715e-01</leafValues></_>
    <_>
      <internalNodes>
        0 -1 190 411043200 782511853 -1792657494 327301266 2146614369
        1739382266 -1116420 211597996</internalNodes>
      <leafValues>
        -3.1396812200546265e-01 9.1036029160022736e-02</leafValues></_>
    <_>
      <internalNodes>
        0 -1 923 -458313440 15629864 933164725 -1099662176 1019620421
        -137564593 -92514332 -570573120</internalNodes>
      <leafValues>
        -2.1639019250869751e-01 1.2959367036819458e-01</leafValues></_>
    <_>
      <internalNodes>
        0 -1 1511 -1488974780 -963107875 -135929442 -1192848396 -7579664
        -687972013 -83906632 -1157927238</internalNodes>
      <leafValues>
        -1.6602467000484467e-01 1.6758272051811218e-01</leafValues></_>
    <_>
      <internalNodes>
        0 -1 269 68421696 137121506 82972672 671234336 2109480234
        1154842226 -1508621008 138884016</internalNodes>
      <leafValues>
        -5.7815003395080566e-01 4.6595241874456406e-02</leafValues></_>
    <_>
      <internalNodes>
        0 -1 731 1692179302 383428006 1928588934 -1612472720 108273445
        1560083384 -25291402 550977319</internalNodes>
      <leafValues>
        -2.5113260746002197e-01 1.0757737606763840e-01</leafValues></_>
    <_>
      <internalNodes>
        0 -1 985 -420067616 -1400197462 1457499706 -22121238 -456890768
        -1367477608 -1614988012 -404018781</internalNodes>
      <leafValues>
        -1.9082102179527283e-01 1.4511412382125854e-01</leafValues></_>
    <_>
      <internalNodes>
        0 -1 224 426374653 -1823559832 -2097794401 987498911 -1644169783
        -1901105665 2088680699 -1214484494</internalNodes>
      <leafValues>
        -1.2411446124315262e-01 2.3458243906497955e-01</leafValues></_>
    <_>
      <internalNodes>
        0 -1 1099 -931361308 -1192333912 -403853652 -51106024 1560261877
        -1814479361 -1073907976 -1901092676</internalNodes>
      <leafValues>
        -1.5152616798877716e-01 1.8424946069717407e-01</leafValues></_>
    <_>
      <internalNodes>
        0 -1 406 1298242999 1034472111 1861360434 -538512768 712777717
        1036646257 -569669 -2089419284</internalNodes>
      <leafValues>
        -1.4140063524246216e-01 1.9736807048320770e-01</leafValues></_>
    <_>
      <internalNodes>
        0 -1 740 750006432 -1494435228 785906992 1827421922 1913402980
        911706373 -17739407 78162198</internalNodes>
      <leafValues>
        -4.0369480848312378e-01 7.0248074829578400e-02</leafValues></_>
    <_>
      <internalNodes>
        0 -1 1211 -267390026 57167609 -338974296 -1242452714 -1125038191
        1846817147 -621551608 1104664174</internalNodes>
      <leafValues>
        -1.8744412064552307e-01 1.4827466011047363e-01</leafValues></_>
    <_>
      <internalNodes>
        0 -1 182 1511173858 9198562 786203310 -1893318674 1111608162
        536172130 2121493788 -1529133186</internalNodes>
      <leafValues>
        -2.7651166915893555e-01 9.9781028926372528e-02</leafValues></_>
    <_>
      <internalNodes>
        0 -1 505 -277632590 2061959054 1860088113 1197208970 1096307061
        1492648598 -36545188 -1434144137</internalNodes>
      <leafValues>
        -1.7953343689441681e-01 1.5601092576980591e-01</leafValues></_>
    <_>
      <internalNodes>
        0 -1 165 23596136 715302904 1870958384 -2118222024 2006742340
        1113713464 -1288812943 743971255</internalNodes>
      <leafValues>
        -3.6739033460617065e-01 7.6578944921493530e-02</leafValues></_>
    <_>
      <internalNodes>
        0 -1 840 1075840256 1684964092 939140640 2095775618 440462696
        1291479418 86008618 141848773</internalNodes>
      <leafValues>
        -3.5244607925415039e-01 7.5796261429786682e-02</leafValues></_>
    <_>
      <internalNodes>
        0 -1 1296 -319542400 -291606605 985316822 -1091917935 1987532032
        2118394919 -433180176 -1560934272</internalNodes>
      <leafValues>
        -2.3793244361877441e-01 1.1709180474281311e-01</leafValues></_>
    <_>
      <internalNodes>
        0 -1 1398 -319410640 -2089634508 -61626944 -1405112655
        -790107524 -1476646677 -33885276 -1225055127</internalNodes>
      <leafValues>
        -1.7913044989109039e-01 1.5802283585071564e-01</leafValues></_>
    <_>
      <internalNodes>
        0 -1 71 2135505708 65711790 -1168252061 1600401358 2118647655
        1742008590 -143576092 -1244021142</internalNodes>
      <leafValues>
        -1.7760944366455078e-01 1.5933753550052643e-01</leafValues></_>
    <_>
      <internalNodes>
        0 -1 1389 -798512014 -59330898 -1128469071 2057545456 947150180
        -997150932 -134474326 -960144113</internalNodes>
      <leafValues>
        -1.6678571701049805e-01 1.7395308613777161e-01</leafValues></_>
    <_>
      <internalNodes>
        0 -1 989 -433756660 784452326 -1932808558 1068556530 343158918
        -1997422502 -164493792 74955266</internalNodes>
      <leafValues>
        -3.1024557352066040e-01 9.9026352167129517e-02</leafValues></_>
    <_>
      <internalNodes>
        0 -1 709 -1601835712 1477225414 -631476290 1993746846 1361531569
        89608571 1848010609 143876762</internalNodes>
      <leafValues>
        -2.4157609045505524e-01 1.1392702162265778e-01</leafValues></_>
    <_>
      <internalNodes>
        0 -1 385 566493576 745433162 -186800236 -1360121930 490492284
        -205521877 -76356188 639503811</internalNodes>
      <leafValues>
        -3.1030076742172241e-01 8.6991705000400543e-02</leafValues></_>
    <_>
      <internalNodes>
        0 -1 195 2029807060 -1111689747 1942714842 -1142159578
        1583932673 -1548901498 1006427844 156904082</internalNodes>
      <leafValues>
        -2.0598971843719482e-01 1.3424882292747498e-01</leafValues></_>
    <_>
      <internalNodes>
        0 -1 1337 1170592620 993910495 696037093 867007472 1374691020
        -819316386 -96032028 -1328263565</internalNodes>
      <leafValues>
        -1.8458428978919983e-01 1.5425345301628113e-01</leafValues></_>
    <_>
      <internalNodes>
        0 -1 1146 -1138058122 713637247 -122217796 1252785888 791988486
        -170250926 -1160341894 284403058</internalNodes>
      <leafValues>
        -2.3025397956371307e-01 1.2466572225093842e-01</leafValues></_>
    <_>
      <internalNodes>
        0 -1 1450 -386210580 -53995646 -24445106 -218580163 -658980608
        213760575 1347867892 -1096652482</internalNodes>
      <leafValues>
        -1.6297759115695953e-01 1.7551389336585999e-01</leafValues></_>
    <_>
      <internalNodes>
        0 -1 1376 -1431794664 -1484661138 1505406602 -570753286
        -671873553 930805542 -1258860119 -68162834</internalNodes>
      <leafValues>
        -1.4195430278778076e-01 2.1791717410087585e-01</leafValues></_>
    <_>
      <internalNodes>
        0 -1 140 617352428 213675694 905787940 1186379423 -1188403711
        -1329842452 -1140885580 464432846</internalNodes>
      <leafValues>
        -2.8514945507049561e-01 1.0372904688119888e-01</leafValues></_>
    <_>
      <internalNodes>
        0 -1 1264 -1062504845 -1074123671 1000333016 1572502932
        1673006992 1050082406 2125177702 -1037319</internalNodes>
      <leafValues>
        -1.5599028766155243e-01 1.8112491071224213e-01</leafValues></_>
    <_>
      <internalNodes>
        0 -1 626 48368724 -2136032224 1829373440 -1396660350 1313170976
        1148197562 2103338146 112218404</internalNodes>
      <leafValues>
        -4.7419035434722900e-01 5.8477327227592468e-02</leafValues></_></weakClassifiers></stage8>
</opencv_storage>
